0.38349 -0.844669 -2.9315 -1.09807 -2.2503 -0.45614 -0.318266 0.502735 0.899259 0.0099142 1.19892 -1.86035 -0.708823 -1.15614 -0.774855 -0.587477 1.02413 0.233743 -1.65573 0.234887 -0.707765 -1.30899 0.16064 0.343826 0.573767 -0.356617 -0.127811 -0.551701 0.307738 0.208883 0.595089 0.239563 -0.00792311 -0.15337 1.89845 -0.203615 -0.42557 0.231018 -0.272607 -2.26823 0.14574 0.29299 0.0320177 3.12416 -0.803567 1.43589 -0.645796 -0.00821172 -0.625675 -0.131337 -0.201336 -0.2236 -1.08096 0.166633 -0.20606 -0.55617 -1.03156 -0.493419 -1.29539 0.312887 -0.0100913 -1.0034 0.0552065 0.898397 -0.658308 -0.269413 0.255195 -0.271506 -0.337939 0.540701 1.51561 -0.323839 -0.555648 0.476874 -0.245451 0.0145801 -0.938844 -0.428775 0.107114 -0.613252 0.325253 -0.518505 -0.522768 -1.10161 -0.398926 -1.62603 0.510238 -0.395677 -0.500449 -0.353807 0.660589 1.94983 -0.539294 -1.32882 0.127341 -1.34694 0.123182 -1.36111 0.180952 0.20397 -0.337553 -0.289162 -1.3357 0.169576 -1.1388 -0.923106 1.12722 -0.446003 -0.201235 -0.0555471 -1.51978 -1.01508 -0.708425 -0.945502 -0.170763 2.71755 -0.0242343 -0.551169 1.35844 -0.178804 -0.0868117 -1.09394 0.00717049 -0.200615 -0.0367211 0.113629 3.01439 0.3211 0.211434 -0.0621139 0.400656 -0.144726 -0.253177 -3.53893 -0.105338 0.410563 -0.0685324 -0.169618 0.853245 0.354 0.126059 0.137329 -0.122494 -0.51215 0.140146 0.175012 0.229923 -0.238406 -0.642814 -0.126221 1.60396 -0.195908 -0.105495 -2.01428 0.00223856 -0.474952 0.639876 0.440154 -0.21588 -0.284648 -0.15912 -0.403324 -0.0398108 0.480143 -0.0784363 -0.445664 -0.29777 -0.168099 0.439689 -0.118454 -0.0891288 -0.232491 -0.218392 -0.411713 2.32385 -0.714128 -0.103547 -0.181295 -0.146022 0.982709 -0.349981 -2.03085 -0.589186 0.097546 -0.141184 -0.44289 -0.144896 -0.13639 -1.27746 0.0455359 0.00108482 -0.879141 -0.00164117 -0.158547 -0.493425 -0.309573 1.18122 -0.239043 -0.182945 0.171682 0.344771 -0.927208 -1.85068 -1.20485 -0.217693 -4.31462 -2.28634 -1.29057 -0.57661 -0.207638 1.57522 -0.822248 -1.33487 -1.47978 -0.891443 -0.539615 -0.773461 1.13376 0.939127 0.129479 -0.389958 -2.10003 0.288157 0.154343 0.736903 0.479579 -1.32373 -0.951924 -0.483628 -1.58311 -1.84366 0.348261 0.435674 0.404727 -0.499208 -0.769612 -0.287603 0.0369291 -0.787714 1.31066 -0.0479314 0.439254 0.486496 -1.31496 -1.06954 -0.0959886 -2.3677 -0.105975 -1.19025 -0.0357636 -0.458691 -0.103303 -1.25488 -1.02797 -0.374185 -1.31902 -0.13174 -1.07025 -1.60619 -0.0620559 -0.33311 -1.28942 -0.190682 -0.50749 0.794354 0.491408 0.263639 -0.328234 -0.975822 0.278991 -0.43231 -0.457668 -0.638708 0.442196 -0.804547 0.368783 -0.456085 1.9807 0.467793 -0.266614 0.246246 0.468328 1.35894 -1.84296 -0.607141 -0.324995 0.203485 -0.559235 -0.382938 0.745382 0.588214 -1.68056 -0.431933 -1.4335 1.15399 -1.66563 -0.201833 2.64008 0.197783 -0.0163561 -0.240772 -0.203321 -2.28483 0.619094 -0.870736 -1.66577 -1.56758 -1.26727 -0.89493 -0.363302 -1.40053 -0.652934 -0.345922 0.34508 -0.195937 -1.03287 -0.277683 -0.56946 -2.88437 -0.182661 -0.529777 -1.59792 -0.338738 -0.0628462 0.367102 1.89106 -2.07039 -0.292524 -1.0445 -0.638348 -0.361825 -0.132283 -0.494909 0.0953306 -0.559152 -0.409844 -0.0386537 -0.189167 -0.27083 -2.28306 -0.470273 0.181368 0.522451 -1.2374 1.67856 -0.873459 0.788598 -0.427338 -1.5259 -0.49088 0.321126 -0.187795 -0.0146947 -2.99171 -0.0828077 2.74198 -0.216608 1.41811 -0.300643 -0.721788 -1.16293 1.15558 0.107173 -0.553955 -0.109935 0.226647 0.234139 -0.382607 1.88381 -0.413868 -0.328219 -0.504252 -0.0722909 -0.534737 -0.134515 0.491065 -0.37471 -0.846452 -0.136235 1.99835 -0.1682 0.160144 0.285703 2.00558 -0.102323 -0.851496 0.246429 -0.164559 -0.81742 -0.496381 -0.582245 -1.239 -0.0416483 -0.30146 -0.43763 -0.359184 -0.299198 -0.325455 0.127947 -0.085411 -0.236975 -0.566319 2.96334 -0.684438 2.71196 0.104248 0.630891 0.158442 -0.180535 -0.220414 -0.710102 -1.64018 -1.58654 -2.40619 -0.915553 -0.681561 -0.16912 0.483939 -1.46159 -0.300685 2.28985 -0.766034 -0.437531 0.0443422 -1.32982 -0.802918 -0.927737 0.585736 0.0816369 0.956916 -0.153077 -0.343693 1.1216 -3.60957 -0.586381 -1.19477 -0.335949 -0.131492 0.0608489 -0.677551 -0.0293503 -0.258033 -0.162326 0.792416 -0.26873 0.0183091 -0.752354 0.443737 -1.77229 0.0273971 1.46696 0.0600993 -0.882501 -0.704263 -0.321602 -0.342577 -0.426707 -0.867732 -0.916647 0.319613 -0.384684 -0.453891 1.39529 0.23154 -0.808868 -0.594318 -0.546708 -0.705383 0.314334 -0.199416 -0.0650441 -0.39852 -0.528276 0.749026 -0.463407 -0.521167 2.23806 -1.16341 -0.396708 1.31455 -0.533855 2.68521 -1.48177 -0.89401 -0.588575 1.99966 -0.0834078 -0.435214 -3.63301 0.806673 1.13048 -1.5909 -0.510616 -1.02292 -0.0935282 -1.30957 1.01582 -0.85094 -0.25777 -0.28398 0.415758 -0.623763 -2.69946 -0.99213 -0.684164 -0.312205 1.26527 0.413196 -0.155615 0.133071 -2.67717 1.17443 -0.567683 0.854099 -0.684178 -0.861558 -0.982285 0.147676 -2.22495 -0.161569 -0.0404625 -0.91885 -0.0318518 0.0252123 -0.978228 -1.65957 1.81297 -0.312232 0.622609 -0.449798 -0.798877 -0.404373 0.934464 -1.17161 -1.10045 2.87568 0.998094 0.107796 0.028752 -1.36129 0.135824 -0.0987983 0.144551 -2.81824 -0.677832 -1.93398 0.477912 1.05343 3.9337 0.101599 -0.885246 0.268912 -0.998689 1.1115 -0.20759 -1.82219 -0.791911 -1.47444 -1.23166 0.660952 2.05334 0.306917 0.180924 -0.142222 0.148315 0.379427 0.261896 -0.621082 -0.84684 0.0964985 -0.168023 1.21562 -0.36476 -1.16976 -0.198116 0.168804 0.799515 0.0537684 0.205789 -1.4485 0.233995 0.107887 0.310719 1.48716 -0.405453 -0.381401 0.218358 -0.266902 -1.09441 -0.238479 -0.176788 -1.83051 -0.358948 -1.19836 -0.252959 -1.14349 -0.204953 -0.694811 0.427321 0.0271764 0.53948 -0.303615 -1.34937 1.99808 2.46238 2.51246 1.68702 0.398766 0.121528 0.319541 1.43059 -1.33208 0.146913 1.84059 -0.246192 -0.717391 0.0557469 0.955997 1.35641 0.158165 1.78772 -1.0401 0.180127 0.218833 0.624894 -0.983006 -1.04879 0.502444 -0.0136112 1.24264 1.80427 0.389254 -0.0228498 -3.05281 -1.07572 -0.765532 -0.410793 0.35488 1.15714 -0.0734105 0.0980066 0.11086 -0.625221 -2.07959 -0.76044 -0.920533 0.424108 -0.0942726 -1.01924 0.261 -0.620907 0.081364 -0.37126 0.317697 -0.279823 0.103127 -0.033104 -0.670946 -0.225191 0.502776 -0.420086 -0.651781 -0.48709 -0.721358 -0.512048 -1.00121 0.039311 -0.0210249 -0.701612 0.554298 -0.298992 0.0445304 -0.281378 1.71146 -0.531036 -1.05575 -0.703269 0.579052 -0.0147581 -1.03935 -0.0628443 0.798271 -1.06613 -0.920679 -0.371221 -1.68707 0.15028 -0.204361 -3.24018 0.865615 -0.539136 -1.83525 -0.271366 -0.517298 0.482651 -0.703958 -0.0900782 -2.79901 -0.161298 0.183723 -0.213193 -0.416735 3.61936 0.214262 -1.61638 -0.920173 -0.644582 -0.714651 -0.61604 -0.240526 -2.33822 2.99147 -0.626869 0.938983 -0.691895 -0.678712 -0.199156 -0.919179 0.500144 0.131754 -0.843029 -1.67969 0.130105 0.328229 0.519177 0.18443 -1.7489 0.263762 -0.239582 -0.545903 -0.29285 0.240093 -0.746438 -1.39658 -0.20145 -0.358146 0.38652 0.0683904 -0.281402 1.96703 0.0321272 -0.963621 0.384129 0.580546 -0.824979 -0.14731 0.491132 -0.106855 -0.854146 0.252945 0.795169 -0.112629 -0.696385 -0.557159 -0.400191 -0.85402 0.985771 -0.805639 -1.1357 0.364545 -0.223481 -0.867186 0.193915 -0.363557 -0.442007 -0.404543 0.0635398 1.3593 1.53027 -0.0716282 0.532698 -0.0609687 -0.396143 -0.752594 -0.887264 -0.121407 1.53799 -0.696728 0.106731 0.497292 -0.00144774 -2.10304 0.093492 -1.34726 -0.394314 -2.77493 0.347939 -0.391368 -0.947393 -0.785026 -0.49381 2.48209 -0.223155 -0.684141 -0.378175 -1.11764 -0.433369 -0.608984 -0.182724 -0.105588 -0.526183 -0.59157 -4.20855 -1.04212 -1.35034 -1.58742 -1.27469 1.26846 -0.717053 0.043512 -2.40774 -1.12429 -0.36108 -1.05647 -0.653522 -1.23493 0.0153345 0.038537 1.34655 0.0256731 0.201464 -0.115593 0.238552 0.149621 -1.47771 -0.852042 -2.46363 0.0743627 -0.895967 -0.35648 -0.559506 0.501896 -1.11153 0.746235 -0.911299 -2.41863 -0.422202 0.491033 -1.47015 -3.06407 0.343053 0.200952 0.784122 -1.16402 -1.30802 -0.319639 2.02147 -0.165572 -1.36383 0.0359136 -1.03622 0.143129 -0.498015 1.64206 -0.121948 -1.31551 -0.26842 -0.837618 -0.532185 -0.614347 -1.02748 -0.874827 -0.478248 -0.625392 -1.01585 -1.2264 0.169325 -0.153155 -1.57477 -0.451557 -1.0588 -0.918307 -0.198868 -1.48672 -1.27232 -0.992723 -0.561538 -1.25736 0.685908 -1.43787 0.223567 -1.50824 -1.68342 -1.65492 -0.363588 1.27357 0.361713 -0.344708 0.179936 -0.633739 -0.272035 -1.63761 -0.235678 -0.531982 -0.83948 -0.73244 -0.355488 -2.22777 -0.418232 -0.275113 0.22842 -0.206988 3.78622 -0.691263 -3.09476 0.329998 0.859072 -0.816862 1.03385 0.0698056 0.038157 -2.85106 -0.495484 -1.06252 -0.381648 -0.463058 0.120129 -0.398259 -2.15565 0.0391719 -1.16921 -1.72383 -0.0571992 0.109296 1.54568 -0.0498456 -0.100309 -0.544765 0.706548 0.338583 -0.163084 -0.826845 -0.842994 -0.475474 -0.222367 -0.753294 0.213535 0.0287751 1.19302 -1.78643 -0.268814 0.795404 -0.504575 -1.48892 -0.232784 0.0366183 0.408314 -0.935185 -0.302154 -0.15762 -1.33202 -0.46188 -0.416739 0.101928 -0.120988 -0.419393 -0.171215 -0.714696 -0.573901 0.121799 -0.171771 -0.820102 -0.854652 0.11435 -0.338065 0.74043 0.520047 -0.154845 -1.3375 0.0910365 -0.445716 0.140935 -0.287434 0.0708707 -0.194848 0.00312335 -2.7493 -0.656799 0.453381 -1.22476 0.145135 -3.71127 0.35838 0.0145537 -0.238696 2.95228 0.464061 -0.235575 -2.46018 -0.463123 -0.549938 -1.82757 -0.306797 -0.813204 -0.109084 -0.847 -0.731798 -1.31712 -0.116226 0.267269 