0.0176151 0.0376151 0.0612151 0.0144151 0.0488151 -0.0113849 0.0278151 0.0328151 0.0319151 -0.00808487 0.0538151 0.0241151 0.0562362 -0.0104441 0.00890917 0.0701149 -0.0103849 0.00731513 0.0556151 0.0684151 0.0516151 0.0696151 -0.0127849 0.0450151 -0.0273849 0.0557151 0.00121513 0.0256151 0.0555151 0.0218151 0.0112151 0.0128151 0.0036141 -0.0240868 0.0337353 0.0105671 0.0185204 -0.0174935 0.0267487 0.0236067 0.024887 0.0322504 0.00432667 0.0647808 0.0153756 0.0682435 0.044149 0.0738371 0.0613457 0.0419509 0.000419469 -0.00720804 0.0488151 0.00621513 0.0183151 -0.0244849 0.0511151 0.0588151 0.0583153 0.0524035 0.00370947 -0.0238146 -0.0206969 -0.0255709 -0.0292441 0.0599917 -0.0222008 -0.0108943 0.033952 0.0594845 0.023658 0.0119174 0.0376111 0.0408663 0.0172001 0.0232692 -0.00608388 -0.017608 0.0623052 0.0330258 -0.024528 0.0577146 -0.0232849 -0.00878487 0.0105151 0.0180151 0.0404155 0.0306226 0.0105469 -0.00664001 0.0670484 -0.0121744 0.0338641 0.07513 0.0200084 0.0436411 -0.00229594 0.0234408 0.0666171 0.0100555 0.030621 -0.0294788 0.0261605 0.0528972 0.0532823 0.0503424 -0.00838548 0.0364545 0.0305805 0.0270157 0.029977 0.0457151 0.0434151 0.0584151 0.0579436 0.0523836 0.0662215 -0.00196773 0.0704823 0.0592533 0.0892513 0.0540886 0.0820314 0.0380431 -0.0345964 0.0840728 -0.0036518 -0.0135675 -0.110912 0.107965 0.185044 0.194565 0.0265115 0.0594483 0.0191349 -0.0177083 -0.0292441 -0.0341492 0.00945308 -0.0192744 -0.0133849 0.0363151 0.0627985 0.058048 0.0301072 0.0642369 -0.0216054 -0.00461515 -0.0462445 0.0821593 0.131145 0.00948628 -0.0556775 -0.256179 -0.322988 -0.351419 -0.284355 -0.104114 -0.00166817 0.0745792 -0.0180072 0.0223059 -0.03304 -0.0635067 -0.00581322 -0.0339769 -0.00920326 0.0401406 0.0488151 0.0346238 0.00756742 0.0180874 0.059322 -0.0430567 -0.0484249 -0.0583273 -0.0207287 -0.01582 -0.160588 -0.127909 -0.230915 -0.366024 -0.267092 -0.182524 -0.01312 0.0541384 -0.199391 -0.158929 -0.131855 -0.184893 -0.208888 -0.164002 -0.0972146 0.0187926 0.0379159 -0.0124761 0.0260147 0.0241935 -0.0139245 -0.0335445 -0.0354582 -0.0922088 -0.134853 -0.147589 -0.149216 -0.207853 -0.316512 -0.236645 -0.391176 -0.300738 0.0159311 0.0383423 -0.0200703 -0.120415 -0.364425 -0.294568 -0.311705 -0.292719 -0.247917 -0.20951 -0.0666288 -0.0331892 0.0481257 0.0427227 0.00801423 0.0120499 0.0630292 -0.0448509 -0.0414523 -0.171365 -0.142406 -0.153342 -0.101481 -0.266823 -0.287387 -0.325593 -0.327171 -0.0933934 0.07431 0.0687475 -0.10168 -0.177036 -0.339341 -0.319024 -0.294326 -0.289725 -0.212646 -0.234085 -0.125756 -0.0885774 0.0139042 -0.0201846 0.00598249 0.0478753 0.0506047 -0.0352488 -0.00887599 -0.0147539 8.2487e-05 0.00381027 -0.0119807 -0.13315 -0.0970651 -0.341553 -0.19329 0.0589062 0.0893122 -0.201365 -0.441854 -0.464384 -0.22286 -0.13851 -0.205756 -0.199804 -0.136804 -0.225027 -0.133717 -0.0170734 -0.0293733 0.0682406 0.0248373 -0.025265 0.0211504 0.0472834 0.022559 -0.0151402 0.0506095 0.0648364 0.0729628 0.000981423 -0.13192 -0.35846 -0.173268 -0.0981465 -0.0459906 -0.34353 -0.521767 -0.529694 -0.240203 -0.127954 -0.135081 -0.12164 -0.186766 -0.162196 -0.083739 -0.0448871 0.0385835 0.0284558 0.0575898 -0.0237167 -0.0161053 0.0515534 -0.0597003 -0.0100388 -0.0569558 0.0986015 0.123791 -0.0428075 -0.169981 -0.158814 -0.15292 -0.194979 -0.31251 -0.533927 -0.451191 -0.350102 -0.17946 -0.0340034 -0.0979559 -0.0641228 -0.078168 -0.0501513 0.00224892 0.000181908 -0.0119904 0.0319046 0.0588175 -0.0180096 0.0104802 -0.00351471 0.0416021 0.0604349 -0.0667995 0.0231246 0.187691 0.0884542 -0.0176016 -0.071078 -0.217227 -0.39348 -0.538407 -0.469456 -0.290488 -0.122464 -0.000819689 0.0278685 -0.050432 -0.0506487 -0.0276178 0.0530405 0.0569895 -0.0358157 0.00344664 0.0473917 0.0412155 0.0468836 0.0538224 -0.0213948 0.0689286 0.00940583 0.0331081 0.12633 0.213111 0.123532 0.135096 0.007673 -0.228982 -0.444572 -0.419353 -0.30908 -0.187605 -0.0435016 -0.00102177 0.0193212 0.00288514 -0.101561 0.0109337 0.0536448 0.0205848 0.0323498 0.0619288 0.0591808 0.0646006 0.0627096 0.0698272 0.0219392 0.0271227 0.0157227 0.0266438 0.159019 0.266189 0.23839 0.138295 0.0537417 -0.176808 -0.330303 -0.300037 -0.305096 -0.17067 -0.152672 -0.0517907 -0.0268809 -0.00354156 -0.068339 0.073462 0.0695218 0.0136307 0.0482045 0.074515 0.0374115 0.00751925 0.0478213 0.0371409 0.0325515 -0.0172953 0.0220974 0.031991 0.086271 0.200414 0.271157 0.320742 0.0975756 -0.215152 -0.253465 -0.353345 -0.425391 -0.300136 -0.0885527 -0.068539 -0.0257654 0.119768 0.0464947 -0.00881524 0.0583645 -0.0153111 -0.00212024 0.00533533 0.032314 -0.0175848 0.0355197 -0.0198381 0.0533144 0.0165937 0.0325584 0.057585 0.114199 0.227527 0.193453 0.289651 0.0782087 -0.206844 -0.246636 -0.3825 -0.452903 -0.288057 -0.0858489 0.0224862 -0.0347019 0.00739284 -0.0108282 0.0780528 0.0555597 0.019931 0.0983294 0.0704905 -0.0253187 0.0550151 -0.0213447 0.0393267 -0.0283381 0.0563079 0.0414463 0.161435 0.150777 0.146686 0.098123 0.0878492 -0.000169761 -0.0751246 -0.278657 -0.365721 -0.257763 -0.251248 0.0750312 0.0320427 -0.091349 0.0205403 -0.00748303 0.110659 0.125801 0.101819 0.113841 0.0829116 -0.0111563 0.036015 -0.0204779 -0.031167 -0.024399 0.0204286 0.0841925 0.105042 0.0715767 0.0474323 -0.0929809 0.0203404 0.0265049 -0.0351805 -0.0676935 -0.204873 -0.0955011 -0.0763361 0.09707 0.208684 0.119012 0.108978 0.135458 0.118674 0.108422 0.166288 0.0956077 0.0347196 0.02171 -0.000886325 0.0295474 0.0151624 0.0596737 0.0264081 0.0537271 -0.0260776 -0.016931 -0.190716 -0.236504 -0.0100324 -0.0199956 -0.0472658 -0.0878563 -0.106422 -0.0259127 -0.0615741 0.053816 0.111237 0.16517 0.188134 0.0619207 0.017072 0.147974 0.0880399 0.0883983 0.0672444 -0.00204518 0.00321513 0.0740824 0.0255792 -0.0248433 0.0237501 0.0105494 -0.146767 -0.130735 -0.149382 -0.146391 -0.00190115 -0.0574026 -0.0679277 -0.0923315 -0.087137 -0.0203481 0.0780037 0.109678 0.0591273 0.0781409 0.0489077 0.0302476 -0.0242307 0.0398886 0.079049 0.0244379 0.0179872 0.00571515 0.0509153 0.0212301 -0.0238902 0.0236252 0.0264917 -0.100029 -0.222388 -0.308342 -0.364779 -0.200048 -0.128771 -0.0576011 0.0528059 -0.0335845 -0.105323 -0.1024 -0.0863514 0.0549903 -0.0129611 -0.00568522 -0.00561917 0.0385564 0.0921176 0.0524421 0.0411616 0.0490185 0.00738575 0.0235151 0.0572153 0.0449155 0.015265 0.0194244 0.0434707 -0.00909352 -0.196241 -0.322791 -0.378567 -0.33567 -0.320323 -0.148014 -0.129263 -0.230235 -0.348159 -0.274192 -0.129812 -0.0654812 -0.0686658 -0.00347899 -0.0094911 0.0591675 0.117996 0.0595548 0.0217002 0.026892 0.0374618 -0.0243849 -0.0151849 0.0688151 0.0317371 -0.0291025 0.0477846 -0.0212755 -0.119459 -0.241029 -0.236731 -0.333273 -0.235714 -0.323487 -0.427242 -0.448246 -0.440279 -0.342497 -0.159693 -0.0257312 0.0117308 0.0143682 -0.0194201 0.0812337 0.0557718 0.0475403 0.0350188 0.0210615 0.0251186 0.0605151 0.0190151 0.0304151 0.0643761 -0.0322794 0.0308414 0.0818014 -0.0383722 -0.0131625 -0.0829044 -0.111899 -0.15404 -0.193099 -0.17978 -0.366661 -0.374304 -0.328983 -0.0737563 0.0232215 0.0577976 -0.018956 0.0603794 0.107774 0.0297716 0.0859846 0.0273908 -0.0101402 0.00901631 0.0429151 -0.0212849 -0.0104849 0.0633415 0.0547685 0.0568627 -0.0195772 0.0129829 0.0588713 0.0226358 -0.00151436 0.0280548 -0.0392016 -0.0182597 -0.0510275 -0.108791 -0.130501 -0.0630961 0.0289495 -0.0203388 0.00987887 0.0351379 0.0648011 0.0225554 0.00911796 0.0387191 0.0723164 -0.0269838 0.00831513 -0.0203849 0.0281151 0.0204151 0.0623155 0.0137033 0.0159566 0.00848128 0.0216546 0.00441466 0.000537677 0.0409563 0.00560449 -0.0124839 0.00955884 -0.0256648 -0.0150354 0.0303968 -0.00390965 0.0275739 -0.0178928 -0.024127 0.0645217 0.0599806 0.0675149 0.0252186 -0.0203825 -0.0224849 0.0576151 0.00301513 0.0195151 0.0291151 0.0717151 0.0443478 0.0185376 -0.0239271 -0.0190867 0.0379068 0.0469982 0.0638212 -0.0241501 0.0504104 -0.0102298 0.0183161 0.0509198 0.0292776 -0.00138959 0.00716585 0.0180442 0.049954 -0.00947196 0.0338734 0.0337398 0.00291513 0.0211151 0.0664151 -0.000384865 -0.0208148 0.0527852 -0.0266148 -0.0267148 0.0447852 -0.0356148 0.0538852 0.0487852 -0.0156148 -0.0367148 0.0230852 -0.0386148 0.00199526 0.0350064 0.0453971 -0.0225018 0.0539852 -0.0364148 0.0344852 0.0359852 -0.00431481 0.00158519 -0.0193148 0.0193852 0.0213852 0.0301852 0.0309852 0.0268852 0.0196852 0.0433852 -0.0242148 0.0282852 0.0473852 -0.0100077 0.0109523 -0.0118705 0.0585885 0.0215971 0.0480346 0.00431485 -0.019739 0.0345197 0.00980095 0.023539 0.0181972 -0.0181289 -0.018145 -0.00954998 -0.0206 0.0529997 -0.00723125 -0.0211023 0.0388852 -0.00431481 0.000185193 0.0505852 0.00288519 -0.0204148 -0.0164148 0.0250854 0.010985 -0.0207881 -0.0128252 -0.0296954 0.0186682 -0.00236315 0.0123732 -0.0103972 0.0579168 0.0152293 0.0257964 0.00747833 0.0347668 -0.0254315 0.0724749 0.0617952 -0.00264254 -0.0189546 0.0103667 0.0505605 -0.015679 0.0483851 0.0337852 0.00988519 -0.00911481 0.0565852 0.00618518 0.028395 -0.0142656 0.0236348 0.0208632 0.0450775 -0.0208602 -0.0242263 0.0504323 -0.00756015 -0.0391279 -0.0267066 -0.0207091 0.00115873 0.0604065 0.0263139 0.0111282 -0.0347085 0.0499854 0.00369751 0.0412815 0.0275859 0.0547149 0.0547889 0.025185 -0.0210148 0.00448519 0.0177852 -0.0271148 0.0261329 0.0275646 -0.00517341 0.00697914 0.000141822 -0.026391 0.0213287 0.0476971 -0.0273023 -0.0650172 0.0301106 0.00798237 -0.0118597 -0.0744648 0.000993245 -0.00353777 -0.0676661 0.00949401 -0.0520782 -0.0338395 0.0432473 0.0115489 -0.0372384 -0.0189692 -0.0276215 -0.000514807 -0.0139148 0.0514127 0.0113275 0.00600669 -0.00504098 -0.042089 0.041493 -0.0645326 -0.0224485 -0.0482777 -0.0823986 -0.0765378 -0.0880747 -0.0507454 -0.0944365 -0.090176 -0.066363 -0.0629747 -0.115152 -0.0337035 -0.0869335 -0.0741016 -0.0713519 -0.0595609 0.0121067 0.0558028 0.0299738 0.0285852 -0.00161481 0.0142392 0.0246413 -0.00429323 0.0224035 0.0425147 -0.0184768 0.000647207 -0.0177762 -0.035763 -0.0959506 -0.111819 -0.0848219 -0.131912 -0.137193 -0.169629 -0.187574 -0.149031 -0.153268 -0.0350827 -0.0361492 -0.0438565 -0.00411572 -0.0486458 -0.0590614 0.0175001 0.0392165 0.0373876 -0.0208157 0.0138114 -0.0132088 -0.037606 0.0052197 0.00144459 -0.034634 -0.0395349 -0.0647021 -0.0494821 -0.0825717 -0.0975517 -0.179038 -0.161687 -0.166958 -0.113126 -0.192038 -0.163449 -0.0814823 -0.0222494 -0.0096324 -0.0359385 0.00822686 0.0201725 -0.0142167 -0.022693 -0.0173191 -0.00220587 0.0585588 -0.0271084 0.0568253 0.01108 -0.0297073 -0.0536207 0.00536937 -0.0638399 -0.078637 -0.0525181 -0.124099 -0.104794 -0.163304 -0.101226 -0.101889 -0.171752 -0.155436 -0.133405 -0.107054 -0.0691906 -0.0294894 -0.0202814 -0.0518375 0.0434769 0.0239509 0.0268056 -0.00293041 0.0288845 -0.0118527 0.0282118 0.00861364 -0.0396788 0.00557977 -0.0248076 -0.0217703 -0.055589 -0.0467357 -0.146713 -0.146224 -0.127994 -0.0776902 -0.0789255 -0.134694 -0.123377 -0.0777619 -0.0854082 -0.0503603 -0.0187205 -0.0325587 0.0128379 0.00808047 -0.0545589 -0.034193 0.0273052 -0.00862923 0.0388811 0.0411609 -0.0386277 0.0225686 0.0108235 -0.0630311 -0.0312265 -0.00164461 0.00896809 -0.0963461 -0.0919731 -0.0669614 -0.139672 -0.0636647 -0.109703 -0.100444 -0.0924704 -0.139644 -0.105484 -0.0747657 -0.0682706 -0.0124917 -0.047244 0.0283001 -0.0111709 -0.0179798 -0.0220948 0.00397825 -0.0387468 0.0416106 0.016192 0.0396603 0.00727607 -0.0399647 -0.018521 -0.0043583 -0.0537884 -0.0417765 -0.0496596 -0.0459593 -0.0746946 -0.07388 -0.0854121 -0.142775 -0.0709136 -0.063355 -0.0504731 -0.123917 -0.0680252 0.00946838 -0.0413767 -0.0421585 -0.0194759 0.0498805 -0.00881189 0.0530787 0.0337813 0.048094 -0.0357595 0.0188657 0.0257437 0.0116621 0.0102302 -0.0194267 -0.0861593 -0.0590772 -0.0972161 -0.0508501 -0.115942 -0.116389 -0.125775 -0.201765 -0.112085 -0.105094 -0.119748 -0.0641249 -0.0641874 -0.043237 0.00663919 -0.0215805 -0.0193229 -0.00554288 -0.0348155 0.0263577 0.0171846 0.0421152 0.0409529 0.0190498 0.0295544 -0.0120131 -0.0435159 0.0108521 -0.0681291 -0.0315763 -0.0554588 -0.154789 -0.0914179 -0.159633 -0.181642 -0.157422 -0.178809 -0.128929 -0.139614 -0.1098 -0.0408217 -0.00100313 -0.00790948 0.0327157 0.0531104 0.0357134 0.0172545 0.0348268 -0.00511287 0.0206715 -0.0356256 -0.0119911 0.00845955 -0.031703 -0.0208491 -0.0957762 -0.047393 -0.0677013 -0.161314 -0.143968 -0.16599 -0.227574 -0.173251 -0.200628 -0.106788 -0.0659088 -0.0766953 -0.0639488 -0.100372 -0.019992 0.0326886 -0.0487333 0.0120813 -0.0291975 -0.0147954 -0.0337608 0.0172851 0.0516767 -0.0407196 0.0393447 -0.0421543 -0.0365209 0.00615207 -0.0782685 -0.0617167 -0.130602 -0.125286 -0.119822 -0.156429 -0.176053 -0.211889 -0.137803 -0.152466 -0.0914847 -0.0366858 -0.0468864 -0.0323456 -0.0630332 -0.0867344 -0.014587 -0.0212552 0.00585313 0.00710466 0.0338432 -0.00251903 -0.0370837 0.046816 0.040873 0.0460272 -0.00660391 -0.0398609 -0.0991837 -0.0733572 -0.103572 -0.0415282 -0.0821049 -0.139907 -0.230801 -0.230727 -0.121989 -0.139132 -0.123895 -0.0647622 -0.061828 -0.0680178 -0.0479501 -0.0191388 -0.000191234 -0.0474337 0.0145512 0.0032442 -0.0365221 0.00278519 0.0108923 0.0353206 -0.0271139 -0.0249541 -0.0225422 -0.0366784 -0.0894029 -0.0755702 -0.116677 -0.120263 -0.166481 -0.151138 -0.148957 -0.143764 -0.153091 -0.134819 -0.0939626 -0.103951 -0.0251489 -0.10214 -0.0760599 0.0127867 0.0234443 -0.0134292 0.00907267 0.0174532 -0.0279 -0.0407279 -0.0248271 -0.0039421 -0.00134582 -0.0287864 -0.0580599 -0.0533183 -0.0383946 -0.0971838 -0.0483329 -0.0995308 -0.172828 -0.145301 -0.173934 -0.137045 -0.122081 -0.119456 -0.0927802 -0.0988785 -0.0435531 -0.0912848 -0.0599461 0.0226282 -0.00993695 0.0287211 -0.012426 0.0539626 -0.0175562 0.0272852 0.0172958 0.0220948 0.0219928 -0.0352422 -0.0480058 -0.054381 -0.0900085 -0.138491 -0.125221 -0.0732126 -0.174488 -0.151148 -0.0655962 -0.0715154 -0.118457 -0.123207 -0.0183954 -0.0454955 -0.0582377 -0.0223558 -0.0112092 -0.0663241 0.000614941 -0.0184709 0.0150514 0.0297378 0.000768585 0.0365852 -0.0117892 -0.0165881 0.051829 0.00200976 0.017684 -0.0644447 -0.0996041 -0.0816214 -0.137935 -0.105148 -0.168872 -0.10764 -0.111427 -0.048568 -0.103387 -0.0406908 -0.0523809 -0.0725147 -0.0316438 -0.00243803 -0.030152 -0.0273795 0.0320365 0.00733598 0.0470992 0.00241428 0.010076 0.0438851 0.0393537 -0.0135078 0.00339207 -0.00630228 -0.0248222 0.0164946 -0.0887352 -0.110188 -0.0829246 -0.162623 -0.131443 -0.111787 -0.173596 -0.106981 -0.0664062 -0.131692 -0.0969 -0.0852272 -0.0681448 0.00897769 -0.0431934 -0.0290131 0.0213637 0.0148123 0.0562029 0.0258717 0.0124853 -0.0056149 0.019785 -0.0053715 -0.0387826 -0.0277962 0.0124103 -0.006183 0.0173672 -0.0555267 -0.128756 -0.10319 -0.190469 -0.193886 -0.182302 -0.151775 -0.123478 -0.122213 -0.0699578 -0.114192 -0.0198495 -0.00189203 -0.00757487 0.0268543 -0.0283859 0.0141241 -0.0341965 0.00716428 0.0281853 0.0235852 -0.00961481 0.00813447 0.0530675 0.0225706 0.0259275 -0.0155091 0.0459109 -0.00114481 -0.0809944 -0.125421 -0.0638685 -0.101724 -0.114748 -0.0789324 -0.0589755 -0.0708914 -0.0899745 -0.0464615 -0.0296349 0.0123803 -0.0347195 0.0443187 -0.0233318 -0.0289316 0.0334714 -0.0320199 0.0183852 -0.0408148 0.0180852 -0.0278068 0.0298287 -0.016602 0.0205779 -0.0318344 0.00726996 -0.0289047 -0.0146995 0.00356072 -0.0600587 -0.000499869 -0.0128883 -0.0481265 -0.0686318 -0.0608942 -0.0586829 -0.0444537 -0.0284598 -0.0331124 0.0470083 0.0154671 -0.0131488 -0.0284592 0.0191067 0.0241653 0.0256852 -0.0379148 0.0292852 8.52443e-05 0.011726 0.0158562 -0.038934 -0.0314786 -0.0120053 -0.00147786 0.0401682 0.0618478 0.0627184 -0.0183469 0.0178855 0.0353415 -0.00375448 0.00624666 -0.0301914 0.0158561 -0.00502001 -0.0378325 0.0375892 0.0453526 -0.00348668 -0.0189516 0.0110677 0.0108643 -0.0201148 -0.0310148 -0.0239148 -0.0183148 -0.0262064 0.0400664 0.0446606 0.052509 0.0168674 0.0297028 0.0393387 -0.0292661 -0.00498769 -0.013202 -0.0133494 0.0192226 0.0333121 -0.00226882 -0.0303991 0.0113517 -0.0275312 0.0324997 -0.0149905 -0.0320188 0.0415817 0.00898529 -0.0170149 0.00778519 -0.0394148 -0.0135148 0.0109852 -0.0350148 0.0335852 0.0485989 0.027287 -0.0264727 0.0148464 0.0515706 0.0251956 -0.0299955 0.0159168 0.044823 0.0564824 -0.0265287 0.0480126 -0.0200946 -0.000861434 0.0402316 0.0238641 0.0505082 -0.0291624 0.00484452 0.0364585 0.0574852 0.0298852 0.00958519 0.0441852 0.32361 0.26321 0.33051 0.29161 0.28771 0.23811 0.25411 0.29511 0.23641 0.27991 0.32481 0.28281 0.301168 0.259994 0.223558 0.286612 0.30991 0.29011 0.29241 0.31111 0.32181 0.24281 0.23601 0.28041 0.27261 0.24191 0.32331 0.24921 0.27201 0.27471 0.26481 0.30971 0.29191 0.247168 0.211786 0.196047 0.158895 0.222334 0.147263 0.0983185 0.0023948 0.171049 0.103448 0.175521 0.165156 0.23118 0.217029 0.175855 0.280419 0.316707 0.296843 0.246308 0.29421 0.30661 0.28081 0.25561 0.33161 0.32261 0.32901 0.315616 0.289808 0.296497 0.22447 0.0202638 -0.00145188 0.0252419 -0.0257374 -0.205853 -0.421695 -0.258709 -0.313733 -0.386032 -0.253364 -0.26023 -0.125868 0.138665 0.26504 0.367439 0.290307 0.261981 0.27071 0.257813 0.30381 0.23581 0.26391 0.28961 0.31811 0.260258 0.30464 0.265478 0.186174 -0.0445673 -0.22545 -0.154466 -0.295674 -0.659357 -0.943617 -1.26667 -1.09298 -0.820632 -1.10295 -0.704529 -0.267414 0.0106286 0.0835196 0.240432 0.319297 0.294263 0.281423 0.311314 0.30251 0.28101 0.25431 0.26571 0.24121 0.30741 0.291938 0.424467 0.421019 -0.156659 -0.434482 -0.573102 -0.609623 -1.05453 -1.6825 -1.9265 -1.70317 -1.56817 -1.71686 -1.21753 -0.585485 -0.326333 0.0368267 0.251112 0.459126 0.75691 0.41772 0.253272 0.271961 0.259559 0.33361 0.24221 0.237196 0.287185 0.28889 0.458972 0.484896 0.109565 -0.302563 -0.4902 -0.948898 -1.57101 -2.41649 -2.99778 -3.1149 -3.20756 -3.14171 -2.31715 -1.51769 -1.33412 -1.27085 -0.366095 0.829623 1.18933 0.609071 0.389833 0.284628 0.239634 0.24181 0.32661 0.236712 0.257141 0.115781 0.121105 -0.262266 -0.261118 0.427188 -0.452802 0.0323836 -0.0973012 -1.77156 -1.85742 -0.9331 -0.934198 -1.24983 -0.17516 -0.386379 -2.15902 -1.97384 -0.902906 -0.170336 0.0516977 0.231338 0.259561 0.320022 0.254883 0.30341 0.276593 0.421971 0.443262 0.110061 -0.225915 -0.358633 -0.234634 -0.619149 -0.44152 -0.499813 -0.856963 -1.05917 -0.434604 0.230899 0.438297 0.652388 -0.270271 -0.0416092 0.00128091 -1.25272 -0.330312 -0.346183 -1.01877 -0.618755 0.151366 0.0304655 0.251876 0.25181 0.310045 0.458702 0.373171 0.367923 0.0724638 0.0895686 0.454746 0.038937 -0.715586 -0.0818742 -0.326991 -0.186916 0.873114 1.27911 0.350689 0.153762 0.0147863 -0.346838 0.714681 -0.141697 -0.356803 -0.283204 -1.04819 -0.731571 -0.0287648 0.0881544 0.23817 0.24071 0.236954 0.411289 0.384685 0.292737 0.136497 0.158275 0.148952 0.296267 0.725548 1.43838 0.682115 1.75891 1.34531 -0.0683106 -0.744916 0.541022 1.10058 0.703108 1.39542 0.547982 -0.563592 -0.97704 -2.03892 -1.21377 -0.391157 0.00203686 0.166246 0.32661 0.291179 0.320856 0.209306 -0.321344 0.117431 0.768482 0.48552 0.293348 1.1614 1.20475 2.01556 2.09624 0.598204 -1.76018 -0.617025 1.97563 1.54482 1.44851 0.833564 -0.371615 -0.0783315 -1.28412 -2.071 -1.69001 -1.11859 -0.326644 0.0334891 0.29991 0.263245 0.291035 0.356193 -0.051954 0.205741 0.91289 0.82365 0.652414 0.481895 0.646761 1.13682 0.878168 -0.667525 -1.29065 2.46013 4.2911 3.76569 1.4791 0.778453 1.22804 0.314494 -1.27738 -2.15761 -1.97036 -0.957443 -0.0420447 0.322618 0.32381 0.25124 0.341042 0.475403 0.601085 0.601025 1.74882 1.89126 1.61834 0.607032 0.618064 0.129099 -1.16202 -1.7045 -0.711363 2.2369 4.812 3.44404 1.59215 1.10217 1.27966 -0.266722 -1.64003 -1.6937 -1.0767 -0.08004 0.0788982 0.267824 0.281939 0.230049 0.237723 0.44984 1.04095 1.97415 2.23903 1.85783 1.19408 0.443145 0.754352 -0.01315 -0.967561 -1.40052 -0.414205 2.95184 4.04755 2.91599 2.00174 1.92422 1.31606 0.374481 -0.831708 -0.733367 -0.456599 0.123701 0.233355 0.250241 0.27351 0.269308 0.305257 0.509166 0.642043 1.75856 2.04894 2.30911 1.15853 0.0253251 0.518119 0.960057 -0.913861 -2.09999 -0.728308 2.68267 4.04724 3.55497 3.07867 2.54949 2.20932 1.13778 0.622891 -0.0210835 -0.617915 0.260955 0.269681 0.275974 0.289009 0.28951 0.278508 0.479636 0.427623 0.73774 1.80249 1.5608 1.36435 0.520015 0.0114972 -0.0504639 -1.44004 -2.48272 -0.634518 3.01517 3.89219 5.04167 3.67597 2.16323 0.767481 0.483972 -0.240786 -1.00828 -1.00753 -0.279863 0.0915693 0.27541 0.251907 0.261022 0.310213 0.354418 -0.0787057 0.332902 0.762016 1.73037 2.48385 2.00176 0.361358 -1.29469 -0.883991 -1.70936 1.13367 3.92763 3.46943 2.18303 1.38699 -0.0448624 0.263283 -0.39691 -1.15083 -1.34689 -0.936838 -0.662386 -0.0676029 0.325318 0.33201 0.293177 0.234118 0.0386789 -0.430606 -0.466451 -0.995334 0.165182 1.66561 1.96387 0.712517 -0.158949 -0.739796 0.687547 2.5409 3.01484 1.29105 -0.265119 -0.264895 -1.34886 -0.956823 -1.37514 -1.86161 -1.11604 -0.520919 -0.0666434 0.172366 0.235323 0.27321 0.30291 0.2609 0.017756 -1.1052 -1.43742 -2.39657 -2.55505 -1.76653 -2.3581 -1.90061 -1.75834 -1.01014 0.31411 1.41069 0.816713 -0.717717 -0.694266 -1.3054 -1.73917 -2.66653 -2.04978 -2.37239 -1.6314 -0.453144 0.19463 0.262226 0.292043 0.32861 0.264519 0.144903 -0.0471802 -1.19247 -2.24233 -3.64581 -4.28742 -5.3177 -5.72921 -3.74236 -3.25689 -1.89465 -1.79172 -0.638096 -1.15829 -1.12453 -1.31583 -2.86993 -3.2461 -3.84558 -2.83672 -2.69266 -1.48736 -0.399915 0.212778 0.281394 0.325231 0.25911 0.290415 0.0830562 -0.0440088 -0.710532 -1.89148 -3.33485 -4.40708 -5.0678 -4.81708 -4.1589 -2.52888 -2.00343 -2.47977 -1.45598 -2.64411 -2.36324 -1.86722 -3.24944 -3.4267 -3.70566 -2.16487 -1.97732 -1.08214 0.0991627 0.251027 0.274856 0.28721 0.27761 0.312573 0.100163 -0.0670136 -0.536226 -1.3119 -2.56718 -2.76125 -2.36222 -2.17656 -2.39324 -2.32221 -1.98548 -2.31728 -1.49534 -2.07037 -1.0869 -1.62447 -2.93969 -2.71562 -2.61576 -1.44763 -0.660956 -0.396127 0.302913 0.308202 0.257043 0.28941 0.25731 0.310801 0.168184 0.0255949 -0.480906 -0.955529 -1.3985 -1.53217 -1.13337 -1.46311 -0.897473 -1.89075 -2.70103 -2.73238 -1.23147 -0.590218 -0.965921 -0.831377 -2.0947 -1.93146 -1.29399 -0.579702 0.0334283 -0.00232088 0.237512 0.220218 0.240616 0.29941 0.27421 0.32751 0.264055 0.117301 -0.0284981 -0.405215 -0.341509 -0.223191 -1.20827 -1.5865 -1.04812 -1.6572 -2.11054 -2.13104 -1.69885 -1.42249 -1.82575 -0.626301 -1.1163 -0.468173 0.0645999 0.553648 0.604597 0.196644 0.369817 0.191443 0.294439 0.25081 0.30001 0.27551 0.296831 0.223587 0.658997 0.906685 1.06615 1.30983 0.784865 0.0988627 0.170044 -0.164745 -0.851713 -1.27832 -1.50738 -1.11186 -0.633081 0.428235 0.208788 0.743963 0.753257 1.09824 0.89166 0.524391 0.302605 0.179069 0.222478 0.31711 0.31151 0.24301 0.251935 0.129435 0.42494 0.873763 1.1082 1.76646 1.98421 1.93282 0.974292 0.575223 0.593721 0.937325 0.517093 0.754988 1.54908 1.27439 1.22319 0.947602 0.912846 0.929424 0.697404 0.304584 0.258859 0.222293 0.22767 0.24411 0.28761 0.24081 0.24191 0.290212 0.33245 0.500747 0.65094 0.568137 0.772951 0.826979 0.60577 0.743283 0.642617 0.499823 0.65989 0.599565 0.666376 0.53331 0.361219 0.407934 0.636051 0.484807 0.313132 0.305844 0.31741 0.33251 0.30811 0.31261 0.30771 0.32021 0.27841 0.31851 0.302613 0.31898 0.271617 0.263558 0.252149 0.327733 0.368784 0.328757 0.284706 0.316229 0.429996 0.380546 0.271115 0.279765 0.251155 0.304816 0.361638 0.343385 0.371942 0.332151 0.29811 0.29301 0.30631 0.26321 -0.00810052 -0.0478005 -0.00660052 -0.0574005 -0.0415005 -0.0186005 0.00109948 -0.0612005 -0.0520005 -0.0860005 -0.0308005 -0.0333005 -0.0188796 -0.0415986 -0.0694494 -0.0798026 -0.0596005 -0.0420005 -0.0179005 -0.0857005 -0.0310005 -0.00310052 -0.000600519 -0.0475005 -0.000900519 -0.0912005 -0.0572005 -0.0923005 -0.0547005 -0.0223005 -0.0418005 -0.0498005 -0.0196006 -0.0844015 -0.0627533 -0.0441548 -0.0581195 0.0128876 0.0252216 -0.067437 -0.0409562 -0.0476456 -0.0324721 -0.0223017 0.0170558 0.00425224 -0.0020061 -0.0207902 -0.0443323 -0.0629702 -0.00634023 -0.00756526 -0.0691005 -0.0415005 0.00489948 -0.0570005 -0.0737005 -0.0349005 -0.0413001 -0.050605 -0.0694085 -0.0521727 0.025934 0.0524637 0.0193094 -0.0260158 0.0927938 0.173381 0.264112 0.298912 0.440968 0.412644 0.350389 0.308805 0.186442 0.165629 0.230281 0.104725 -0.0147514 -0.00890876 0.00558462 -0.0539926 -0.0731005 -0.0260005 -0.0854005 -0.0858005 -0.0422962 -0.0293364 -0.0399552 -0.00707161 0.0531311 0.147695 0.140003 0.0655646 0.0633169 0.144791 0.311837 0.513976 0.787387 0.963401 0.711292 0.451657 0.418573 0.501969 0.266327 0.0388119 -0.0289193 -0.0527609 -0.0520456 -0.0406288 -0.0508004 -0.0622005 -0.0886005 -0.0166003 -0.0223301 0.00543859 -0.0670598 0.145119 0.156773 0.212557 0.18633 0.0691856 0.126908 0.284183 0.273582 0.386902 0.420989 0.398769 0.373604 0.223496 0.241037 0.141724 -0.0522131 -0.167171 -0.150799 -0.190482 -0.131046 -0.0209639 0.00615216 -0.0713021 -0.0309005 -0.0837005 -0.0687746 0.00507404 0.0413397 0.171269 0.175401 0.310652 0.201804 0.0585015 0.252964 0.358293 0.175649 -0.238603 -0.386177 -0.491913 -0.448427 -0.315385 -0.406791 -0.38867 -0.338119 -0.406949 -0.351404 -0.271183 -0.219697 -0.0960555 -0.0725466 -0.0673203 0.00199948 -0.0240996 -0.0600311 -0.0319194 0.000606226 0.0115268 0.0424173 0.171245 -0.0987074 -0.326504 -0.153652 -0.0852461 -0.32239 -0.54307 -0.543027 -0.494496 -0.436071 -0.803734 -1.06539 -1.04866 -0.763001 -0.760871 -0.648476 -0.497877 -0.307319 -0.202633 -0.0563276 -0.0379014 -0.027201 -0.0617512 -0.0673083 -0.0655806 -0.0234033 -0.0257091 -0.014072 0.0472861 -0.252818 -0.36379 -0.620902 -0.522156 -0.514329 -0.255453 -0.261198 -0.153555 -0.767385 -1.23893 -1.47265 -1.20113 -1.02167 -0.852335 -0.784742 -0.49561 -0.285088 -0.157081 -0.0635558 -0.0421444 -0.0858024 -0.0685408 -0.0058959 -0.0954207 -0.0788826 -0.117316 -0.176219 -0.268896 -0.415253 -0.467225 -0.993844 -0.747834 -0.0643384 0.220072 -0.0556208 -0.282577 -0.930364 -1.4717 -1.74952 -1.14221 -0.801687 -0.728898 -0.782039 -0.552444 -0.332667 -0.123679 -0.0322397 -0.0661028 -0.0908008 -0.0445282 -0.0338625 -0.115802 -0.187592 -0.227271 -0.233933 -0.216213 -0.345777 -0.673697 -0.821219 -0.236783 0.354166 0.409125 0.288742 -0.337804 -0.897682 -1.29573 -1.40569 -0.880898 -0.504698 -0.55113 -0.720793 -0.505852 -0.287481 -0.200359 -0.0740183 -0.031131 -0.0793005 -0.0336948 0.00262267 -0.0839084 -0.291775 -0.292492 -0.315408 -0.346996 -0.542476 -0.770789 -0.329838 0.337635 0.685681 0.671514 0.030582 -0.711619 -0.778015 -0.769386 -0.597336 -0.552181 -0.302474 -0.288487 -0.3483 -0.38122 -0.275872 -0.227822 -0.0796254 0.00445384 -0.0890065 -0.0235154 0.0342466 -0.0583545 -0.126145 0.101085 -0.120752 -0.258526 -0.540516 -0.397696 0.209918 0.946608 0.97664 0.449066 -0.400272 -0.8248 -0.647376 -0.538319 -0.0859252 0.112918 -0.0578236 -0.108135 0.0557544 0.00798399 -0.138795 -0.201481 -0.0897347 -0.0892717 -0.0376002 -0.0203259 -0.0573139 -0.0657185 -0.146214 0.117133 0.161681 0.15147 -0.300969 -0.108172 0.694496 1.09469 0.673007 0.0520655 -0.0900365 -0.207614 -0.085009 -0.217252 0.12874 0.214214 0.237702 0.272609 0.343652 0.335055 0.103757 -0.0710123 -0.104838 -0.0602656 -0.029414 -0.035736 -0.0475671 -0.0199427 -0.188382 0.0393033 0.220184 0.000596343 -0.0540474 0.018968 0.341412 0.239875 -0.322992 -0.419736 -0.0458172 0.481405 0.589279 0.19681 0.240974 0.466068 0.53188 0.653322 0.532314 0.486959 0.223006 -0.113293 -0.100682 -0.0619911 -0.04456 -0.0243284 -0.0321988 0.017234 -0.22402 -0.074284 0.0129508 -0.259397 -0.168852 0.0503955 0.191426 -0.166655 -0.707174 -0.501896 0.147619 0.549853 0.794434 0.495559 0.449412 0.651135 0.591934 0.673545 0.498234 0.473596 0.213634 -0.151444 -0.119928 -0.0655453 -0.0721853 -0.0403873 -0.061536 0.00701302 -0.306295 -0.204349 -0.0806789 -0.169428 -0.120834 0.0598551 -0.0568417 -0.0577054 -0.631764 -0.412491 0.324691 0.211916 0.303748 0.19815 0.510336 0.673648 0.845773 0.727377 0.300288 0.167654 0.160812 -0.173328 -0.215717 -0.00602656 -0.0294992 -0.00956152 -0.0703517 0.0658989 -0.249741 -0.267671 -0.34693 -0.13777 0.168485 0.0677645 0.125343 0.0637161 -0.308912 -0.0865431 0.259471 -0.291592 -0.4085 -0.170193 0.420309 0.625798 0.739392 0.506791 -0.0315141 0.0467963 -0.0474637 -0.0748149 -0.169592 -0.105785 -0.0391005 -0.0191608 -0.0187587 -0.0676992 -0.247377 -0.421735 -0.518406 -0.354242 0.149644 -0.0220237 0.0174434 0.272338 0.120473 0.0739555 0.344619 0.12781 0.0603439 0.438865 0.535639 0.315906 0.600113 0.552115 0.383282 0.194928 -0.204535 -0.0715022 -0.124899 -0.0821892 -0.00630049 -0.0694002 0.0325268 -0.0323942 -0.2004 -0.439624 -0.498891 -0.254822 0.320688 0.294624 0.250154 0.731743 0.85319 0.476507 0.354873 0.335459 0.531229 0.525633 0.303551 0.242247 0.532456 0.60813 0.491924 0.129959 -0.26509 -0.15106 -0.176774 -0.167509 -0.0377005 -0.0547442 -0.0371645 -0.0547872 -0.0810748 -0.352958 -0.607871 -0.0871832 0.221553 0.35599 0.268493 0.497822 0.645862 0.673445 0.248462 0.250193 0.358845 0.449879 0.417216 0.461593 0.65199 0.187769 0.105295 -0.108416 -0.347904 -0.361163 -0.122209 -0.113843 -0.0883005 -0.0760793 -0.030644 -0.0903563 0.0469921 -0.36813 -0.562233 -0.27907 -0.0593251 0.207778 -0.0753596 -0.0467249 0.289608 0.465129 0.275986 0.365898 0.404328 0.470076 0.403073 0.236367 0.0965108 -0.451931 -0.493246 -0.304406 -0.324656 -0.212789 -0.0718874 -0.0874007 -0.0276005 -0.0769099 -0.097318 -0.0510745 -0.062118 -0.290165 -0.502478 -0.588713 -0.340615 -0.417146 -0.458384 -0.420245 0.0322197 0.465317 0.31284 0.266093 0.215107 0.0476562 -0.23949 -0.296725 -0.409545 -0.684571 -0.584253 -0.291187 -0.111947 -0.0306735 -0.0669391 -0.0590006 -0.0524005 -0.0431898 -0.031109 0.0109725 -0.0415488 -0.249411 -0.346707 -0.522354 -0.623766 -0.665213 -0.972498 -0.904796 -0.587432 -0.546859 -0.320353 -0.155759 -0.308951 -0.696452 -0.486416 -0.550209 -0.570855 -0.542991 -0.289985 -0.200653 -0.108901 -0.0688666 -0.0183769 -0.00550072 -0.0249005 -0.0834005 -0.0697423 -0.0014395 0.0283129 -0.0296846 -0.0683812 -0.203621 -0.454377 -0.69583 -0.779066 -0.602376 -0.609484 -0.760842 -0.875236 -0.805436 -0.784914 -0.436929 -0.233959 -0.390152 -0.316373 -0.186971 -0.15308 -0.187243 -0.0765111 -0.0729678 -0.0460001 -0.0128005 -0.0609005 -0.00740052 -0.0631162 -0.00257157 0.00375121 0.0107441 -0.0714082 -0.125195 -0.176494 -0.279629 -0.0788421 -0.0511231 -0.0965482 -0.248249 -0.418566 -0.281997 -0.0732821 -0.088947 -0.23058 -0.167164 -0.196915 -0.16565 -0.134634 -0.0910879 -0.0543637 -0.0764309 0.00275096 -0.0881005 -0.0196005 -0.0786005 -0.059796 -0.0729158 -0.0764875 -1.35293e-07 -0.100948 -0.0550281 -0.0878011 -0.0451701 0.124831 0.128932 0.0637025 -0.0740644 -0.176837 -0.0916802 -0.092211 -0.180711 -0.100341 -0.134646 -0.065324 -0.148406 -0.127375 -0.0586403 -0.0939964 -0.0778939 -0.0864536 0.00129948 -0.0285005 -0.0187005 -0.0102005 -0.0765002 -0.0140041 -0.0403605 0.000840065 -0.0325287 0.00422553 -0.0108394 0.031173 -0.0378005 -0.0718918 -0.0234818 -0.0709197 -0.0369314 0.0111404 -0.0482232 -0.0658294 -0.0248243 -0.0410021 -0.0824757 -0.00526888 -0.0709732 -0.0693005 -0.0913005 -0.0512005 -0.0725005 -0.0213005 -0.0906005 0.00139948 0.00149948 -0.0263995 -0.0003719 -0.0266964 -0.0687647 -0.0666532 -0.0665267 -0.0152802 0.0115139 -0.0703609 -0.0807195 -0.0728545 -0.0733732 -0.0371146 -0.0649602 -0.0325991 -0.0301378 -0.0630096 -0.0832494 -0.0425438 -0.0377629 -0.0296005 -0.0515005 -0.0306005 -0.0340005 -0.0900233 -0.0414233 -0.0614233 -0.104723 -0.0918233 -0.103223 -0.0732233 -0.0928233 -0.0650233 -0.0717233 -0.0782233 -0.100523 -0.0367233 -0.0924232 -0.0337233 -0.0254233 -0.0987233 -0.104723 -0.0797233 -0.0752233 -0.0356233 -0.0920233 -0.0148233 -0.00912328 -0.0992233 -0.0655233 -0.0961233 -0.0880233 -0.0622233 -0.0330233 -0.0337233 -0.00612328 -0.0234233 -0.0169233 -0.0707233 -0.00982328 -0.0697234 -0.00820958 -0.0202776 -0.0127697 -0.0226504 -0.0636564 -0.0273055 -0.0333784 -0.0891923 -0.034501 -0.0584386 -0.0226161 -0.0421316 -0.0455285 -0.0619291 -0.0683161 -0.0280233 -0.0691233 -0.0723233 -0.00772328 -0.0853233 -0.0575233 -0.0250233 -0.0126233 -0.0152034 -0.0865041 -0.087522 -0.0472177 -9.63632e-05 0.0404105 -0.0818925 -0.0678634 -0.160983 -0.130712 0.0217751 0.194257 0.0483057 -0.000283864 0.0529867 0.329093 0.295629 0.186263 0.139267 -0.0206682 -0.034603 -0.0301233 -0.00842328 -0.0495233 -0.0534233 -0.0396233 -0.0174233 -0.0774116 -0.0798396 0.0033535 0.0313002 0.0788325 -0.118515 -0.14484 -0.243991 -0.456637 -0.596768 -0.281399 0.132222 0.580414 1.15609 1.39061 1.37862 1.16778 0.862859 0.775916 0.411479 0.0385402 0.00907435 -0.0117465 -0.0150908 -0.0192233 -0.0221233 -0.0792232 -0.0584089 -0.0443508 -0.0172306 0.0753709 0.113138 0.125615 -0.0954723 -0.281576 -0.623826 -0.965187 -0.77198 -0.763452 -0.544231 -0.355796 0.608335 1.25725 1.54438 0.876505 0.465381 0.238421 0.117053 0.0913227 0.104479 -0.0705657 -0.0197971 -0.00960612 -0.103923 -0.0210233 -0.0263013 -0.0544907 -0.053901 0.149986 0.305756 0.0717696 0.126829 -0.221865 -1.05786 -1.61802 -1.31187 -1.85454 -0.628725 0.355783 0.395444 -0.253441 -0.0209512 0.797041 0.230232 0.0388546 0.12034 0.371993 0.257946 0.172252 0.0437301 0.0435591 -0.00952328 -0.102523 -0.0862181 -0.035231 0.0308384 0.123226 0.180963 0.0581127 -0.360066 -1.33089 -1.44371 -1.18022 -1.58796 -2.84291 -2.97942 -2.30741 -3.23319 -2.82261 -1.53462 -1.14566 -0.822552 0.157371 0.792384 1.06817 0.362039 0.105898 0.0430847 -0.0412392 -0.0809284 -0.0936553 -0.0571571 0.0116192 -0.05623 0.0290412 -0.116107 -0.406007 -0.487642 -1.40832 -1.81205 -2.16655 -3.78752 -4.03573 -4.46641 -5.6007 -5.02265 -3.5727 -2.67474 -1.20795 -1.77005 -0.464192 0.956624 0.363726 -0.256752 -0.167456 -0.0896599 -0.0449457 -0.0656442 -0.0558417 -0.0599274 -0.160958 -0.292837 -0.140608 -0.332471 -0.304346 -0.612169 -1.38549 -2.38875 -2.6514 -3.12797 -2.59413 -3.93743 -3.99963 -3.5014 -2.54751 -2.54476 -1.42165 -1.75704 -0.486398 -0.0134815 -0.645207 -1.19576 -0.753317 -0.084266 -0.070198 -0.00492667 -0.0138691 -0.0459962 -0.438143 -0.483923 -0.609943 -0.951456 -0.870309 -1.28669 -2.24627 -2.50008 -1.70307 -1.44618 -1.55244 -3.80843 -3.19981 -2.16781 -2.28416 -2.39952 -1.54999 -1.92814 -0.771004 -0.637126 -1.34388 -1.3551 -0.697298 -0.152041 -0.0211264 -0.0956233 -0.0513902 -0.187146 -0.432593 -0.356846 -0.844118 -1.0259 -1.29136 -2.24798 -2.62739 -1.9857 -0.929516 -0.208009 -0.594366 -3.22836 -2.76867 -1.72227 -1.86474 -1.79968 -1.94037 -1.84834 -1.07832 -1.25908 -1.295 -0.968376 -0.464757 -0.136601 -0.0227141 -0.0375233 -0.10285 -0.151005 -0.0917985 -0.0591873 -0.537461 -0.771229 -1.20475 -2.13287 -1.88945 -0.437735 0.330746 0.905671 -1.09363 -2.26775 -1.8017 -0.470653 -1.71066 -2.82122 -2.48284 -1.29714 -1.33243 -1.49489 -1.03655 -0.712629 -0.418063 -0.158586 -0.0607847 -0.0753233 -0.185021 -0.275544 -0.0583642 -0.188943 -0.282794 -0.0692596 -0.276697 -0.65509 -1.28143 0.902555 2.11758 1.30318 -0.919148 -1.3757 -0.0321803 0.211678 -1.96654 -3.08866 -1.8679 -0.619978 -0.949969 -0.685702 -0.375993 -0.0461071 -0.0156157 -0.0857597 -0.079009 -0.0456233 -0.162704 -0.151682 -0.0456842 0.130712 -0.286414 0.0550223 0.845442 0.483666 0.152717 2.81447 3.36266 2.15159 0.750343 0.0233016 0.48645 -0.425366 -1.60553 -2.23542 -0.481664 0.171784 0.287988 0.897039 0.658589 0.109707 0.00342619 -0.0945402 -0.0777233 -0.00982317 -0.0691615 -0.0999388 0.174308 0.332027 -0.246696 0.368946 0.809555 1.1189 0.562296 3.35619 3.8259 2.33478 0.750999 0.156471 0.239538 0.620412 0.302816 -0.670989 0.752072 0.880214 0.945418 1.3012 0.684971 0.0660556 -0.114083 -0.0605902 -0.0463233 -0.0396232 -0.0900231 -0.0497276 0.159957 0.181109 0.0384453 0.795423 1.11678 0.808425 0.370466 1.59316 1.7663 0.949134 0.128995 0.539764 0.610977 0.355019 0.211294 -0.319367 -0.410341 -0.136964 0.301527 0.97045 0.587175 -0.292488 -0.052178 -0.0500841 -0.0499591 -0.0518233 -0.0532233 -0.0438509 -0.0379262 -0.0228502 -0.0441844 0.822647 1.26251 0.748785 0.705775 0.0724323 0.13355 0.616815 0.161827 0.831329 0.833918 -0.276632 0.615063 -0.120319 0.311401 -0.407479 0.427317 1.25781 0.750443 0.0896967 0.0855694 -0.0758787 -0.0910785 -0.102523 -0.0213233 -0.0736831 -0.163812 -0.445604 -0.464337 0.194495 1.03997 1.50097 0.901629 0.31255 -0.577433 -0.199333 1.32605 1.85391 1.09632 -0.000387198 0.939324 0.517988 -0.0140259 -0.219402 0.584627 1.03676 0.595837 0.229977 0.0204207 -0.0342286 -0.0568729 -0.0566233 -0.100823 -0.045211 -0.0099646 -0.393226 -0.541666 -0.868741 -0.563059 -0.131549 -0.131986 -0.435584 -0.389521 0.622383 1.48823 1.13527 -0.100032 0.156393 0.215517 0.0693318 -0.614246 -0.603032 -0.19404 0.405218 0.360718 0.0587466 -0.113261 -0.0909195 -0.0729517 -0.0319233 -0.0736233 0.0187693 0.0253204 -0.17753 -0.453115 -0.99486 -1.25935 -1.11314 -0.880237 -0.914129 -0.107671 -0.0186777 -0.403441 -0.699202 0.363332 0.149483 -0.048612 -1.10547 -1.43271 -0.977249 -0.364483 0.169618 0.109516 -0.0975096 -0.178954 -0.0863875 -0.0134499 -0.0426233 -0.092623 0.00414663 0.0936643 -0.278747 -0.669074 -0.928697 -1.21049 -0.998365 -0.518159 -0.350099 -0.17943 0.297487 0.0181236 -0.302307 0.555599 0.593856 -0.121562 -0.913695 -1.71157 -1.16416 -0.47211 -0.432536 -0.199042 0.0613381 0.0680688 -0.0101886 -0.0606233 -0.0498233 -0.0782225 -0.0382728 -0.0904691 -0.248735 -0.575683 -1.16864 -1.62548 -1.33281 -0.475613 0.252248 0.371595 0.900335 0.455 -0.328968 0.0619311 0.131064 0.0191621 -0.85517 -1.74384 -1.15979 -0.87478 -0.655215 -0.179919 -0.0295597 0.0246907 -0.1059 -0.0597233 -0.0501233 -0.100423 -0.0416006 -0.0904208 -0.105203 -0.417571 -0.927978 -1.28244 -1.93031 -1.48516 -0.926903 -1.11168 -0.889721 -0.753052 -1.83423 -1.40424 -1.19218 -1.08547 -0.741034 -1.71681 -0.887379 -0.566727 -0.581619 -0.19716 -0.010193 -0.0118058 -0.0836204 -0.0319233 -0.0723233 -0.0213233 -0.0658349 -0.0856557 -0.0972658 -0.163692 -0.411403 -0.90152 -1.19705 -1.51709 -2.17319 -2.76156 -2.33518 -1.90117 -2.62563 -1.735 -0.891804 -0.893913 -0.169153 -0.962639 -0.363362 -0.349318 -0.247946 -0.134725 -0.0542437 -0.0133122 -0.0390171 -0.0156233 -0.0212233 -0.0735233 -0.0447233 -0.00973387 -0.0767034 0.108038 -0.0505467 -0.464327 -0.486946 -0.442883 -0.868128 -1.37488 -0.744134 -1.30273 -1.34954 -1.16123 -0.27699 -0.277737 -0.213895 -1.06495 -0.718312 -0.465942 -0.354199 -0.195995 -0.0792826 -0.0838635 -0.0329233 -0.0808233 -0.0303233 -0.0425233 -0.0793233 -0.0525057 -0.0494538 -0.00251387 -0.0332113 -0.301241 -0.673963 -0.770836 -1.33455 -1.64542 -1.5232 -1.7355 -2.24687 -1.93566 -1.84506 -1.67126 -1.36207 -0.898859 -0.510965 -0.261062 -0.0846109 -0.0538709 -0.0676571 -0.0957233 -0.0561233 -0.0395233 -0.0547233 -0.0664233 -0.0748233 -0.0500149 -0.0282032 -0.0347802 -0.306672 -0.274508 -0.252705 -0.424789 -0.715251 -0.708977 -0.707122 -0.966061 -1.26118 -1.17702 -1.12715 -0.765789 -0.524814 -0.416845 -0.26756 -0.237848 -0.155925 -0.101114 -0.0177233 -0.0163233 -0.101423 -0.0943233 -0.0199233 -0.0686233 -0.0390233 -0.0541233 -0.0778233 -0.0249123 -0.0648792 -0.10561 -0.0573989 -0.0213527 -0.0220119 -0.0410859 -0.103745 -0.129472 -0.120979 -0.129748 -0.0134065 -0.0800097 -0.0445807 -0.0581693 -0.094891 -0.139445 -0.0656082 -0.0189233 -0.0697233 -0.0761233 -0.0135233 -0.0576233 0.0811059 0.0289059 0.110606 0.105006 0.118906 0.0621059 0.0581059 0.0236059 0.0979059 0.0446059 0.0480059 0.0670059 0.0367053 0.065493 0.111093 0.0804054 0.0572059 0.0853059 0.0627059 0.0572059 0.114106 0.105106 0.0667059 0.119106 0.0564059 0.0821059 0.0918059 0.0342059 0.0973059 0.0700059 0.0439059 0.0658059 0.0473701 0.087807 0.0936059 0.078451 0.0811303 0.131656 0.0744916 0.0799302 0.0973931 0.086481 0.0344698 0.0611976 0.138503 0.0954087 0.111672 0.0646541 0.156965 0.367165 0.179921 0.0282301 0.0924059 0.107106 0.0823059 0.0931059 0.0301059 0.0853059 0.100606 0.0500557 0.0239865 0.0323429 0.0204663 0.0888925 0.212446 0.330907 0.254767 0.275409 0.402673 0.239982 0.27162 0.112553 0.321274 0.615649 0.716954 0.618495 0.522192 0.578028 0.531946 0.125386 0.044029 0.0443834 0.0482059 0.0717059 0.0884059 0.104006 0.0548059 0.035085 0.0862664 0.0187846 -0.0875976 -0.0666743 0.220387 -0.146326 -0.247953 -0.635037 -0.907833 -0.826361 -0.653647 0.240378 1.1218 1.69195 1.27644 1.33125 1.32344 1.32364 0.621704 0.17248 0.0852149 0.101056 0.0608059 0.0700059 0.0919059 0.0332059 0.0432766 0.0881885 -0.0267143 -0.0959832 -0.136283 -0.472201 -0.531656 -0.614624 -1.15719 -1.43689 -2.0304 -2.38163 -1.98304 -1.18009 0.568943 1.26432 1.20131 1.25291 1.33879 0.724939 0.272959 0.584671 0.216899 0.11466 0.0881592 0.0901962 0.0903059 0.0809059 0.0479537 -0.0631753 -0.115368 -0.234581 -0.408738 -1.04438 -1.32122 -1.5674 -1.91166 -1.58917 -1.51451 -1.51654 -1.1986 -2.02551 -1.15203 -1.21963 -1.06827 -0.424115 -0.173438 -0.681731 -0.366203 0.457449 0.569014 0.245831 0.0681408 0.0776061 0.116006 0.0588059 0.0774289 -0.0532007 -0.259312 -0.435304 -0.999548 -1.36117 -2.45763 -2.0008 -1.78822 -0.957646 -0.569846 1.26904 0.842793 -0.381324 -0.904697 -0.455575 -1.20307 -1.26631 -1.57995 -1.39864 -0.24668 0.789828 0.862291 0.479932 0.0682694 0.0256678 0.0222538 0.0302311 -0.0305645 -0.24389 -0.807297 -1.15355 -1.6575 -1.74354 -1.84849 -1.61938 -0.581215 -0.0286036 0.52514 -0.437563 0.400352 0.927006 0.215687 -0.114951 -1.84517 -2.24271 -2.76479 -2.52399 -1.06445 0.122942 0.837457 0.456219 0.109779 0.0620209 0.0777621 0.0740385 -0.0500808 -0.417408 -1.40427 -1.68748 -1.7058 -1.82504 -1.36008 -0.963859 -0.431188 -0.534304 -0.753863 -0.991213 -0.680346 -0.413086 -1.30251 -1.89983 -2.99499 -3.31568 -3.25752 -3.00949 -1.94717 -0.755325 0.654063 0.531127 0.12508 0.0971016 0.0962417 0.106493 0.00520417 -0.408486 -1.34348 -1.59468 -1.142 -1.29554 -0.775823 -0.216476 0.105831 0.259892 -0.394659 -1.09937 -2.1525 -2.49805 -3.54629 -3.95252 -3.10069 -2.87905 -2.86753 -2.52839 -2.15137 -0.645211 0.481378 0.411284 0.0270034 0.0807451 0.0396059 0.0935614 0.0819013 -0.146487 -0.966073 -0.87237 -0.015379 0.0708346 0.0806716 0.319027 0.897582 1.63504 0.95158 -0.796993 -1.59152 -3.56953 -4.31484 -3.28978 -3.69233 -3.07269 -1.97715 -1.6154 -0.950376 -0.400875 0.291525 0.445462 -0.12177 0.0641338 0.0509058 0.0822179 0.041912 0.103858 -0.160023 0.433135 0.894479 1.53439 1.45887 1.25084 2.70679 2.56786 1.62639 0.494547 -1.74536 -2.37479 -1.35348 -0.339806 -1.47027 -1.75076 -0.93683 -0.739877 -0.0378498 0.182829 0.265432 0.264107 -0.039292 0.0271802 0.0791059 0.0708562 0.0533478 0.224493 0.459179 1.34852 2.15298 2.66985 1.89489 1.78284 3.37863 2.66225 1.73644 -0.580559 -1.49695 -0.381648 0.430717 1.64207 1.11658 0.23934 0.097761 -0.183822 0.483452 0.931568 0.288494 0.0254004 0.0307169 0.0744643 0.0789059 0.0351281 0.0908957 0.123062 0.721652 1.90817 2.81487 2.69029 2.38365 2.49587 2.46569 2.33262 0.178945 -1.13798 -1.46572 0.457494 1.24559 1.12366 1.3535 0.554546 0.775811 0.749598 1.11825 1.1664 0.606507 0.0480705 -0.0495659 0.0542049 0.0405059 0.043893 0.0716488 0.272612 0.562892 0.934288 1.89092 2.08009 2.5916 2.33469 2.82054 1.88798 0.27368 -1.67033 -1.1795 -0.374814 0.649942 0.928232 0.160358 0.198799 0.65563 0.772689 0.747144 1.04668 1.1393 0.248172 0.00174982 0.0910058 0.0539573 0.113611 0.0781553 0.179745 0.0793601 -0.153165 0.694862 0.90848 1.34882 1.13561 1.53642 0.658246 0.410607 -1.26296 -0.684977 -0.0937237 -0.670327 -0.888241 -1.07189 -0.00703127 0.345862 -0.402405 -0.235264 0.699234 0.81939 0.0518871 -0.28904 -0.233602 0.0253279 0.0628059 0.0976514 -0.148972 -0.5509 -1.04654 -0.400806 -0.14066 0.162278 0.715607 1.24748 0.861412 -0.329004 -0.945773 -0.691471 -0.536918 -1.97112 -1.98194 -1.04889 -0.11799 -0.536269 -1.09428 -0.893941 0.0103475 -0.199957 -0.324005 -0.170508 -0.105227 0.0286059 0.0203055 0.020978 -0.309412 -1.49788 -1.69017 -1.35586 -0.254585 0.070483 0.563877 1.79921 1.79421 0.918191 -0.0805108 -0.33849 -0.878717 -1.66198 -1.29057 -0.906051 0.774513 -0.617786 -0.955574 -0.349982 -0.228384 -0.900112 -0.734895 -0.315718 -0.0334566 0.0517059 0.0831058 0.0909181 -0.332265 -1.99125 -2.4654 -2.42216 -1.33484 -0.459157 0.570984 1.24279 0.841998 0.726425 -0.568208 -0.660971 -1.01217 0.12356 -0.606115 -0.431199 0.0252807 0.13442 -0.369023 -0.812876 -1.64716 -1.78466 -1.07361 -0.362758 -0.0238017 0.0490059 0.0386057 0.0484781 -0.576589 -1.91544 -2.3429 -2.06646 -1.7047 -1.79765 -0.156383 1.65208 1.14226 0.0740898 -0.596898 0.00441422 0.0804878 0.356168 -0.779551 0.369983 0.697179 -0.040904 -1.42529 -1.74618 -2.18661 -1.6766 -0.892742 -0.352923 -0.0585033 0.0262059 0.0612058 0.0628947 -0.582516 -1.83528 -2.48403 -2.09478 -1.73351 -2.02736 -1.31449 0.384437 0.88738 1.08398 0.673121 0.733587 0.386335 -0.389565 -0.363978 -0.557469 -0.830697 -1.50513 -2.42667 -1.96147 -1.59458 -1.15768 -0.281555 0.0210727 0.0580059 0.0573059 0.109906 0.0142335 -0.569891 -1.53265 -2.38177 -2.35582 -2.46655 -2.15671 -1.7199 -0.903254 -0.192204 0.474766 0.616588 0.68824 -0.120887 -0.211278 -0.0965349 -0.473493 -0.773776 -1.23689 -1.70305 -1.37463 -0.867022 -0.363932 -0.0338628 0.0308847 0.0922059 0.0911059 0.0889059 0.041742 -0.311161 -0.918997 -1.69181 -2.11122 -2.34749 -1.88692 -1.58462 -1.10117 -0.506977 -0.304957 0.000688026 -0.143478 -0.663402 -0.541175 -0.443213 -0.626221 -0.95219 -0.637318 -0.640801 -0.354856 -0.0985297 -0.110742 -0.0976268 0.0779009 0.100306 0.0412059 0.0562059 0.109841 -0.186988 -0.470805 -0.910818 -1.41379 -1.71609 -1.23543 -0.907906 -0.617213 -0.996434 -1.08342 -0.7523 -0.337517 -0.699476 -1.20965 -0.936399 -0.474215 -0.547321 -0.593686 -0.288738 0.0641933 0.0336861 0.0569942 0.0444643 0.0471513 0.110706 0.0939059 0.0452059 0.0308059 0.0583158 0.0585139 -0.197911 -0.492506 -0.382064 -0.540345 -0.122367 0.19301 0.462406 -0.460622 -0.45544 -0.674733 -1.12334 -0.319769 0.389887 0.53038 0.50892 0.583866 0.276307 0.20002 0.174895 -0.0012283 -0.0125245 0.0871544 0.0990059 0.109206 0.0923059 0.0477059 0.113192 0.0731237 -0.126345 -0.035598 0.129073 0.211846 0.362489 0.63264 0.340608 0.166426 0.458611 -0.21234 -0.345925 0.190493 0.597996 0.61819 0.601235 0.672517 0.5821 0.335209 0.10705 0.100932 0.0372039 0.0587599 0.0210059 0.0439059 0.101906 0.0646059 0.068819 0.0511551 0.0745427 0.251654 0.08229 -0.104382 -0.0611865 -0.152409 0.00523511 0.295403 0.335263 0.163886 0.157579 0.112074 -0.00707638 -0.0134994 -0.0360134 0.0662921 0.135861 0.0576856 0.099324 0.0950059 0.112006 0.0692059 0.0471059 0.105906 0.0584059 0.0776059 0.0871059 0.0837038 0.0866061 0.0492429 0.0942944 0.04887 0.115443 0.0167381 0.0754209 0.0362346 0.0187053 0.011962 0.00791185 0.0300456 0.0533646 0.0146847 0.0582873 0.083411 0.0424712 0.0860181 0.0445053 0.0958059 0.0728059 0.103206 0.0909059 0.176561 0.124661 0.130061 0.122261 0.0957606 0.122961 0.148261 0.108961 0.0923606 0.0811606 0.0976606 0.177161 0.0993421 0.107337 0.120429 0.0900551 0.105361 0.175261 0.135261 0.145261 0.0952606 0.141061 0.137961 0.128361 0.101661 0.0837606 0.131761 0.124861 0.143261 0.165761 0.129161 0.178761 0.140761 0.157361 0.132886 0.0874073 0.11382 0.0926616 0.132159 0.105932 0.0987725 0.180801 0.156806 0.250478 0.176085 0.170674 0.174902 0.130252 0.174268 0.139455 0.145029 0.177598 0.150161 0.0903606 0.118861 0.145561 0.151361 0.0959606 0.110561 0.124261 0.0928596 0.0971971 0.127858 0.159948 0.175073 0.0592495 0.0429424 -0.0169134 0.031057 0.145017 0.0537214 0.229319 0.149145 0.357587 0.280524 0.527098 0.560909 0.348699 0.194245 0.11565 0.104372 0.112038 0.117661 0.110461 0.171061 0.0837606 0.165161 0.10503 0.114136 0.0771167 0.106064 0.0788909 -0.00521895 -0.130066 -0.297805 -0.577945 -0.70245 -0.807462 -0.584228 0.0459058 0.360204 0.368444 0.499033 0.869192 0.915066 0.681505 0.551046 0.325823 0.263772 0.202651 0.152565 0.171261 0.158761 0.17406 0.143252 0.109683 0.149229 0.127377 0.0898007 -0.00778032 -0.151117 -0.424372 -0.656034 -1.3424 -1.34639 -1.18983 -0.765737 -0.527965 -0.1538 0.0176123 0.448693 1.12656 1.16953 1.04725 0.978721 0.891634 0.257847 0.0691124 0.116974 0.0928897 0.0978606 0.121961 0.182244 0.160229 0.1536 0.0565021 0.0100178 -0.110465 -0.355768 -0.678625 -0.892875 -1.5422 -1.74899 -1.12513 -0.224763 -0.456087 -0.984524 -0.831403 -0.428641 0.344579 0.410033 0.442429 0.891981 0.845215 0.379648 0.122858 0.151955 0.162413 0.122061 0.134229 0.107221 0.0717834 0.0954653 0.0647353 -0.0451658 -0.264424 -0.540721 -1.00162 -1.38548 -1.54969 -1.3185 -0.721599 -0.0864674 -0.467226 -0.665538 -0.547559 0.0599864 0.0148429 -0.028659 -0.340134 0.397046 0.620196 0.45709 0.267911 0.121398 0.124938 0.134762 0.0869227 0.0531662 0.0687555 0.0638332 -0.104986 -0.35815 -0.436006 -0.665394 -1.29136 -1.51924 -1.53188 -0.83415 0.0528368 0.873149 -0.184196 -0.313886 0.118399 0.216251 0.280526 -0.357915 -0.602545 0.0796537 0.395566 0.381071 0.270512 0.256148 0.177708 0.137864 0.0894535 0.117867 0.0228377 -0.100598 -0.270156 -0.475693 -0.74571 -0.968084 -1.35141 -1.77947 -1.46351 -0.458873 0.759335 1.03909 0.480939 0.0734215 0.444906 -0.13595 -0.585968 -1.13983 -1.05502 -0.390418 -0.048011 0.182794 0.299741 0.225153 0.083329 0.157258 0.144375 0.121501 0.0392028 -0.0877368 -0.223857 -0.545559 -0.852329 -1.20804 -1.50914 -1.56726 -0.968355 0.130646 1.5769 1.18777 0.242729 -0.00911848 -0.0127078 -0.906535 -1.13226 -1.32743 -0.973981 -0.633387 -0.39272 0.161192 0.245062 0.154568 0.158573 0.16856 0.124946 0.16656 0.12294 0.111862 -0.155163 -0.568633 -0.874208 -1.07135 -1.44801 -1.22391 -0.204995 1.02661 1.46466 0.486356 -0.100998 -0.145252 -0.57135 -1.1718 -1.31064 -1.38761 -0.855498 -0.435842 0.0465079 0.268552 0.0622708 0.0754771 0.112487 0.156258 0.107922 0.112991 0.154409 0.191726 -0.0394699 -0.294794 -0.602377 -1.1411 -1.22647 -0.515496 0.763768 1.64571 1.15454 0.492202 -0.0117843 -0.00241611 -0.214771 -1.07715 -1.39067 -1.04949 -0.63273 -0.509637 0.0431248 0.151072 0.0937848 0.0280008 0.0695827 0.142161 0.179435 0.164913 0.130821 0.163055 -0.0589503 -0.255761 -0.695458 -1.05932 -0.9304 0.368576 1.75492 1.94767 1.13387 0.446573 0.640804 0.143087 -0.660037 -0.882291 -0.912534 -0.738381 -0.821793 -0.611647 -0.347476 -0.255635 0.0120786 0.0776476 0.0657539 0.133006 0.181551 0.181895 0.125533 0.0998051 0.0173682 -0.333938 -0.624596 -1.07179 -0.215465 0.844605 1.50154 1.15321 0.826453 0.310327 0.506348 -0.155839 -0.580278 -0.614695 -0.418806 -0.483782 -0.555838 -0.467995 -0.472464 -0.426779 -0.251671 -0.0347893 0.153212 0.179138 0.120592 0.10938 0.0933336 0.0699523 0.0428296 -0.396433 -0.604605 -0.704248 0.191861 0.981254 0.58001 0.116147 -0.0343502 0.250908 0.282288 -0.287002 -0.658667 -0.302579 -0.199219 -0.261411 -0.401238 -0.437016 -0.51181 -0.439907 -0.260361 0.0505781 0.0973181 0.0812522 0.146642 0.0947443 0.123329 0.0118956 0.000997537 -0.329037 -0.487817 -0.281872 -0.107062 0.0823548 0.119032 -0.246987 -0.660615 -0.370335 -0.434897 -0.0741378 -0.513948 -0.256803 -0.122382 -0.141074 -0.285807 -0.436336 -0.494631 -0.417221 -0.217504 0.0029592 0.111716 0.143055 0.110415 0.0844523 -0.0345022 -0.00573713 -0.0066239 -0.138348 -0.308531 -0.463516 -0.684791 -0.466902 0.0707505 0.0533664 0.119436 0.635059 0.0437942 -0.0058598 -0.0237915 0.437571 0.110943 -0.0231562 -0.191923 -0.383117 -0.457371 -0.379842 -0.104157 0.0820779 0.138279 0.160261 0.135588 0.0391009 -0.0914327 -0.0371256 -0.115675 0.154349 -0.2061 -0.636139 -0.910331 0.193272 0.441899 0.644767 0.580646 0.489934 0.242534 -0.188135 0.139349 0.260687 -0.119206 -0.288063 -0.385831 -0.612657 -0.513883 -0.191349 0.051566 0.131235 0.0920326 0.0921614 0.113836 0.13397 -0.171562 -0.0786804 -0.175615 0.291804 0.0596487 -0.585363 -0.381936 0.00797782 0.669096 0.980318 0.28186 0.261557 -0.535414 -0.220368 0.254999 0.203666 -0.299819 -0.94782 -0.805423 -0.920161 -0.575398 -0.10115 0.0395839 0.134376 0.15112 0.171857 0.141071 0.0494098 -0.154634 -0.372814 -0.258962 0.0784403 -0.287505 -0.517317 -0.30274 0.221432 1.32587 0.883434 0.59827 0.590592 -0.0526258 0.157871 0.210114 0.102699 -0.467719 -0.914073 -0.684827 -0.702072 -0.494516 -0.0367278 0.0190078 0.0769931 0.0820867 0.160961 0.0870614 0.00435909 -0.281921 -0.641074 -0.36647 -0.340821 -0.858925 -0.520515 -0.291629 0.341461 1.16014 0.595434 0.481962 0.601514 0.346797 0.425332 0.385146 -0.448574 -0.588118 -0.639289 -0.508601 -0.38612 -0.233177 -0.206136 -0.0467187 0.0866828 0.14307 0.141272 0.0927714 0.0615102 -0.0707307 -0.545466 -0.714686 -0.715173 -0.923194 -0.593881 -0.371999 0.152151 0.782292 0.547539 0.0267535 0.447986 0.345863 0.329219 0.0396486 -0.824525 -0.499298 -0.158089 -0.107179 -0.115923 -0.107117 -0.0639046 0.0313774 0.156876 0.0944606 0.0876721 0.13757 0.0855981 0.0304952 -0.175572 -0.457827 -0.722487 -0.864961 -0.151619 0.117745 -0.65805 -0.666036 -0.14654 -0.638825 -0.428171 -0.387209 -0.229181 -0.0820178 -0.268471 -0.410325 0.00612917 -0.0406281 -0.0906683 0.0582788 0.046783 0.0747213 0.141149 0.0808606 0.124961 0.113261 0.130945 0.0741432 0.0928673 -0.0249883 -0.054418 -0.43266 0.218308 0.175195 -0.335793 -0.82355 -0.913865 -1.18173 -1.02949 -0.565417 -0.0506917 -0.120841 -0.355923 -0.256223 0.103568 -0.0577564 0.0785242 0.178349 0.151903 0.153559 0.107391 0.137961 0.140161 0.143961 0.0947395 0.13275 0.0670578 0.107801 0.0399808 -0.0555082 -0.117484 -0.0551931 0.0297137 -0.270693 -0.78226 -1.30959 -0.91361 -0.404635 -0.0813322 0.00349944 -0.114833 -0.190249 -0.0361309 0.0120529 0.0995286 0.125497 0.157625 0.0903486 0.111451 0.162661 0.159461 0.168061 0.146461 0.0962017 0.174093 0.16695 0.186047 0.304279 0.397184 0.491635 0.572271 0.427194 0.28202 0.109916 -0.0465578 -0.0137663 0.00410756 -0.154178 -0.140988 -0.0213056 0.0705071 0.159814 0.125741 0.120331 0.101912 0.173641 0.137038 0.0813606 0.0813606 0.0975606 0.0884606 0.110661 0.186082 0.104086 0.166998 0.0894046 0.0374514 0.132454 0.216961 0.173271 0.252157 0.107948 0.127812 0.163982 0.0152788 0.0169711 0.00457262 0.0885006 0.12449 0.167507 0.173676 0.146606 0.0821606 0.169761 0.100161 0.114361 0.148761 0.120861 0.173461 0.0858606 0.092499 0.141428 0.101287 0.0787357 0.105219 0.168316 0.147176 0.158781 0.129342 0.0949543 0.103218 0.151182 0.152152 0.186862 0.116682 0.168623 0.135722 0.0797166 0.179869 0.160259 0.148161 0.175161 0.169261 0.127561 -0.103941 -0.110341 -0.117441 -0.118941 -0.0968413 -0.132941 -0.0642413 -0.106641 -0.0902413 -0.133341 -0.0976413 -0.142141 -0.133254 -0.123134 -0.115615 -0.120844 -0.104541 -0.142041 -0.0689413 -0.144941 -0.0846413 -0.0956413 -0.0664413 -0.124941 -0.128041 -0.147841 -0.136041 -0.136241 -0.0806413 -0.102541 -0.0907413 -0.0994413 -0.142041 -0.0583433 -0.0589193 -0.0715262 -0.123693 -0.0536198 -0.0639068 -0.0627751 -0.108447 -0.146452 -0.1363 -0.141493 -0.0798193 -0.120086 -0.0604859 -0.0754202 -0.0940941 -0.0676687 -0.0681421 -0.112157 -0.0706413 -0.0684413 -0.129641 -0.0658413 -0.0702413 -0.0841413 -0.10224 -0.123441 -0.0860417 -0.100558 -0.109535 -0.0595082 -0.0745238 -0.0892906 -0.106125 -0.0399096 -0.0842818 -0.0153253 0.0163757 -0.0793122 -0.203315 -0.115431 -0.126531 -0.133259 -0.0966791 -0.0368112 -0.0834366 -0.116079 -0.126411 -0.128288 -0.0659413 -0.121441 -0.106241 -0.118341 -0.0934386 -0.140937 -0.0866212 -0.058798 -0.112465 -0.139358 -0.109908 -0.166735 -0.199803 -0.301802 -0.449789 -0.445209 -0.500418 -0.599189 -0.437376 -0.273774 -0.271491 -0.270738 -0.146165 -0.00389916 0.0465822 0.0241592 0.00191068 -0.0443437 -0.0735705 -0.139841 -0.0597413 -0.0997879 -0.0632099 -0.120285 -0.130555 -0.0905569 -0.151814 -0.237389 -0.290553 -0.359594 -0.606726 -0.729873 -0.744393 -0.896203 -0.685066 -0.392919 -0.447741 -0.476622 -0.527498 -0.247592 0.119232 0.288365 0.315888 0.230507 -0.0267403 -0.0530295 -0.0841449 -0.0575279 -0.129241 -0.0740413 -0.0840867 -0.0655467 -0.138662 -0.105482 -0.306526 -0.387841 -0.516855 -0.779214 -0.847645 -0.574562 -0.391188 -0.418166 -0.49551 -0.746513 -0.180331 0.333498 0.430875 0.24177 0.549452 0.282153 0.287035 0.348382 0.0548411 -0.0429517 -0.148804 -0.0949804 -0.0840413 -0.0893998 -0.0713443 -0.0811279 -0.111465 -0.214542 -0.388372 -0.530095 -0.712594 -0.972696 -0.606806 -0.129191 -0.0683543 -0.442535 -0.419967 -0.0914821 -0.037576 0.15987 0.384933 0.528115 0.536203 0.495949 0.582732 0.474343 0.184048 -0.102811 -0.138232 -0.0907418 -0.0593418 -0.140178 -0.0888356 -0.134735 -0.243119 -0.27079 -0.444639 -0.583798 -0.926718 -0.828333 -0.196465 0.0726639 -0.20622 -0.407541 -0.247558 -0.320799 -0.0174826 0.352425 0.228561 -0.0801187 -0.054725 0.0248907 0.398157 0.787739 0.507426 0.0753177 -0.10551 -0.0896878 -0.119743 -0.140927 -0.0970196 -0.12655 -0.191534 -0.371033 -0.456508 -0.855549 -1.07271 -0.505982 0.105661 0.253635 -0.096316 -0.00948008 -0.189955 -0.674754 -0.429266 -0.276545 -0.480605 -0.255354 -0.149952 -0.0955828 0.452565 0.695578 0.487545 0.133746 -0.0473551 -0.117175 -0.0674446 -0.119065 -0.121151 -0.112448 -0.182407 -0.292067 -0.483361 -0.948392 -0.771509 0.0938805 0.616424 0.528888 0.40218 0.421137 -0.257173 -1.08307 -0.978502 -0.51403 -0.730412 -0.264602 -0.0532549 0.186164 0.551927 0.644971 0.3626 0.0124955 -0.124013 -0.0531301 -0.0599449 -0.0732068 -0.125939 -0.120786 -0.152475 -0.214495 -0.507538 -0.847525 -0.54295 0.49905 1.09026 0.883673 1.0186 1.23303 -0.0463824 -0.554853 -0.93351 -0.807638 -0.361714 -0.1655 -0.0908386 0.186831 0.330322 0.378041 0.159656 -0.0310268 -0.123554 -0.12435 -0.116853 -0.127776 -0.12199 -0.0723035 -0.0606076 -0.197431 -0.334398 -0.665222 -0.21365 0.5007 0.931742 0.750874 1.50984 1.45368 0.431864 -0.195471 -0.481291 -0.256807 -0.22809 -0.149745 0.0893008 0.148185 0.219606 0.193219 0.0190411 -0.014573 -0.156977 -0.102705 -0.109241 -0.097368 -0.0605165 -0.0878261 -0.0514939 -0.139674 -0.0588104 -0.44368 -0.263732 -0.0105454 0.232123 0.407234 1.20029 1.06702 0.0819103 -0.478728 -0.557584 -0.0462886 0.0515257 -0.150533 0.0498128 0.169443 0.0604055 -0.0301012 -0.0845874 -0.130257 -0.152498 -0.116519 -0.0759415 -0.0592002 -0.0933724 -0.145976 -0.0843194 -0.0267838 -0.0199148 -0.373644 -0.593824 -0.462748 -0.147919 0.452194 1.05683 0.825274 0.175422 -0.349165 -0.46613 -0.226367 -0.0180561 -0.238303 -0.0331769 -0.0129489 -0.069089 -0.367045 -0.358493 -0.257254 -0.17775 -0.155434 -0.0676883 -0.0955124 -0.0844105 -0.0945998 -0.164831 -0.121411 -0.181921 -0.430319 -0.736803 -0.674769 -0.0635669 0.515619 0.480403 0.189616 0.00138607 -0.131756 -0.122209 -0.371914 -0.51563 -0.415086 -0.158505 -0.252494 -0.370972 -0.533738 -0.492476 -0.199832 -0.129688 -0.117241 -0.0531346 -0.0696963 -0.108008 -0.121411 -0.175233 -0.271095 -0.328201 -0.453165 -0.769017 -0.362978 0.172975 0.526247 0.305718 0.00123831 -0.363463 -0.179579 -0.705105 -0.599826 -0.62436 -0.621877 -0.428111 -0.316682 -0.494294 -0.472008 -0.424232 -0.332112 -0.170406 -0.121218 -0.115941 -0.144339 -0.0783542 -0.126317 -0.286535 -0.315255 -0.392306 -0.478961 -0.269956 0.21067 0.40976 0.50933 0.104961 -0.223676 -0.472951 -0.189709 -0.769115 -0.597146 -0.29107 -0.479265 -0.59372 -0.577132 -0.53456 -0.421159 -0.498683 -0.422718 -0.180177 -0.0690448 -0.0784413 -0.0552655 -0.146485 -0.250915 -0.199608 -0.331987 -0.117196 -0.0243662 0.298777 0.87696 0.566499 0.758391 0.638402 -0.200507 -0.341426 -0.144974 -0.259315 -0.352924 -0.130731 -0.525578 -0.493308 -0.680527 -0.626489 -0.505555 -0.524856 -0.331175 -0.102133 -0.0962119 -0.132651 -0.100513 -0.12555 -0.201654 -0.251614 -0.366907 0.073292 0.398578 0.831068 0.846384 0.657391 1.03719 0.807345 -0.668398 -0.707977 -0.0128618 -0.164635 -0.312667 -0.18969 -0.529643 -0.56241 -0.553853 -0.760287 -0.464152 -0.389673 -0.314553 -0.135186 -0.0895196 -0.112788 -0.10885 -0.135198 -0.34654 -0.332223 -0.211058 0.189368 0.613521 0.565648 0.604409 0.596776 0.829919 -0.0972236 -0.998867 -0.901585 -0.0228053 -0.0781316 -0.376001 -0.231619 -0.255043 -0.517813 -0.818007 -0.636972 -0.411833 -0.290294 -0.224245 -0.169356 -0.135794 -0.130841 -0.0736629 -0.155869 -0.363801 -0.330031 -0.120726 0.335318 0.437458 0.276907 0.226558 0.639363 0.597801 -0.417654 -1.01566 -0.61987 -0.23724 -0.297909 -0.296247 -0.401611 -0.505742 -0.522589 -0.402221 -0.293271 -0.326493 -0.313553 -0.140451 -0.149519 -0.103536 -0.0753207 -0.114559 -0.101806 -0.238736 -0.389806 -0.216723 -0.0694552 0.351749 0.0511659 0.237576 0.637958 0.673562 0.0962314 -0.418125 -0.226956 -0.265196 -0.177414 -0.301649 -0.282477 -0.359387 -0.352473 -0.263725 -0.22923 -0.309472 -0.141567 -0.126825 -0.122991 -0.0956414 -0.0577213 -0.136233 -0.120472 -0.176908 -0.397551 -0.469869 -0.500599 -0.138612 0.0479611 0.25639 0.471675 0.921063 0.734788 0.782574 0.513857 0.0279223 0.0610029 -0.160457 -0.317045 -0.379295 -0.323425 -0.274887 -0.108145 -0.178752 -0.133667 -0.135257 -0.142461 -0.101041 -0.106441 -0.144041 -0.122745 -0.213184 -0.327051 -0.555863 -0.582222 -0.377595 -0.098892 0.0146573 0.279247 0.695214 0.899937 1.12285 0.675194 0.440904 0.464271 -0.0723451 -0.439803 -0.501373 -0.352707 -0.130099 -0.152332 -0.113826 -0.179309 -0.105053 -0.0544403 -0.0995413 -0.0494413 -0.126941 -0.0928209 -0.134208 -0.203962 -0.351015 -0.405725 -0.461583 -0.141364 0.00315522 0.0827164 0.208892 0.426712 0.407154 0.37143 0.38149 0.014027 -0.25877 -0.23236 -0.28069 -0.218255 -0.0947474 -0.0904593 -0.0996919 -0.0805157 -0.139482 -0.105554 -0.130141 -0.0920413 -0.112841 -0.0894551 -0.117025 -0.0314738 -0.178949 -0.181777 -0.225289 -0.261466 -0.224664 0.0467441 0.0177438 -0.275128 -0.31417 -0.105804 -0.109452 -0.265285 -0.249506 -0.0945614 -0.192492 -0.163259 -0.107609 -0.0912112 -0.0800409 -0.0721862 -0.0583703 -0.0891369 -0.133141 -0.120541 -0.126241 -0.108641 -0.115441 -0.0896534 -0.188836 -0.168353 -0.170193 -0.151804 -0.114296 -0.0868515 -0.104233 -0.284235 -0.324037 -0.294361 -0.226729 -0.252858 -0.142626 -0.115669 -0.165651 -0.101194 -0.0890709 -0.136449 -0.129709 -0.132942 -0.0872413 -0.0978413 -0.125641 -0.111341 -0.141541 -0.138641 -0.104441 -0.144629 -0.105804 -0.163318 -0.114648 -0.150284 -0.142902 -0.117897 -0.089882 -0.158274 -0.099636 -0.094671 -0.118907 -0.0856725 -0.0677511 -0.135969 -0.0684289 -0.125323 -0.0987627 -0.106468 -0.113255 -0.141241 -0.141741 -0.110141 -0.0791413 0.0403578 -0.0306422 0.00905779 -0.0187422 0.00745779 -0.00964221 -0.00464221 0.0213578 -0.0169422 -0.0407422 0.0341578 -0.0311422 -0.0370605 0.048353 0.0227745 0.0566502 0.0269578 -0.0167422 -0.00744221 0.0582578 0.00895779 -0.0363422 -0.0351422 -0.0136422 0.0531578 0.0548578 0.00135779 0.0489578 0.0502578 -4.22075e-05 -0.0121422 -0.0339422 -0.0156527 0.00552542 0.0108599 0.049877 0.0229003 0.000758967 -0.0207808 0.00826704 0.0572682 0.0489729 -0.0034379 0.0222187 0.0331857 -0.0133071 -0.00706628 0.0297098 -0.00980258 0.0182153 0.050895 -0.0377881 0.0142578 -0.0350422 0.0425578 0.00985779 -0.0207422 -0.00894221 -0.0136846 -0.0197516 0.00470584 -0.0348225 -0.0272144 0.00592439 0.0397035 -0.0127879 -0.00922011 0.0447359 -0.0152586 -0.0288326 -0.0184662 -0.0923713 -0.0989734 -0.0532841 -0.0583604 -0.0268433 -0.0384204 0.0389243 -0.0485069 0.0358716 0.00376019 0.00623614 -0.0346422 -0.0130422 0.0215578 -0.0248422 -0.036036 -0.0398775 0.00151102 -0.0173275 -0.0611181 -0.00131357 -0.0762579 -0.0423052 -0.0638964 -0.0634187 0.0151861 0.0499176 -0.122459 -0.259702 -0.203259 -0.0783886 -0.049047 -0.0864041 -0.0584671 -0.00494501 0.00369035 0.0249701 0.0461306 -0.0168493 -0.0287823 0.0437578 0.0284578 0.0529611 0.0478388 0.0143528 -0.0233109 -0.00413149 -0.0263757 -0.0554455 -0.0978248 -0.0604723 -0.0336376 0.0171609 -0.0534575 -0.195738 -0.275462 -0.226618 -0.156194 -0.175455 -0.192887 -0.126929 -0.0312048 -0.0697201 0.094201 0.00493255 0.0278243 -0.00229057 -0.0182729 -0.00396233 -0.0354422 0.0454578 -0.0184837 0.0441592 -0.0153714 -0.0719348 -0.105969 -0.103551 -0.0970795 -0.0376493 -0.0965835 -0.0350095 -0.161011 -0.161886 -0.218123 -0.0573982 -0.168302 -0.331698 -0.399045 -0.256544 -0.220245 -0.121651 -0.0834926 -0.0234955 -0.0234809 0.0330289 -0.0295348 0.0327275 -0.0195422 -0.0387422 -0.0262574 -0.0299658 -0.0424975 -0.119152 -0.197874 -0.208687 -0.220829 -0.222061 -0.126955 0.126652 0.232195 0.256321 0.182142 0.278531 -0.139765 -0.502498 -0.430432 -0.377191 -0.208425 -0.169618 -0.141853 -0.0765416 -0.0493184 0.0244014 0.0477037 -0.011586 -0.0168445 -0.0123546 0.0280618 -0.0828203 -0.129378 -0.33989 -0.451976 -0.344761 -0.119058 -0.0231238 0.196496 0.278098 0.389947 0.414991 0.306303 0.301933 0.125644 -0.0735553 -0.327175 -0.376556 -0.276143 -0.215269 -0.259238 -0.256915 -0.0743414 0.020265 -0.0414734 0.0132311 0.0408232 0.0457938 0.0135429 -0.134155 -0.204274 -0.380957 -0.48844 -0.492701 -0.02335 0.182886 0.216306 -0.0274632 -0.102296 -0.171942 -0.199276 0.0421832 0.493151 0.339214 -0.00669124 -0.294497 0.0125627 -0.0914324 -0.195409 -0.250744 -0.0615642 -0.0104439 0.048722 0.011971 -0.0372964 0.0175763 -0.0419472 -0.0232869 -0.298635 -0.501201 -0.603651 -0.356327 0.182928 0.398118 0.545566 0.0479836 -0.331618 -0.464405 -0.495045 -0.272171 0.287079 0.388408 0.238787 0.0591311 -0.0563454 -0.133782 -0.23746 -0.280554 -0.0884471 -0.0222617 -0.0157589 0.0193819 -0.00847034 0.0273309 -0.0245038 -0.0304894 -0.222859 -0.384956 -0.351605 -0.0119335 0.390359 0.919271 0.573027 -0.00744297 -0.607162 -0.629201 -0.455811 -0.228474 0.274775 0.206746 0.119417 0.23771 0.251434 0.0353939 -0.152772 -0.136583 -0.0989525 0.0707386 0.0116453 -0.0180525 -0.0161018 0.00586867 -0.0259814 -0.0543699 -0.132475 -0.0951464 -0.0175628 0.372051 0.805502 1.08594 0.389986 -0.459129 -0.510506 -0.575149 -0.583793 -0.429585 -0.0782762 0.143346 0.306638 0.572022 0.559735 0.198361 0.0541876 0.116429 0.0958088 0.00945605 0.0394533 0.0342527 -0.0107099 0.0533122 -0.0266778 0.0175242 0.116966 0.0822437 0.370778 0.529368 0.967726 1.15271 0.376212 -0.326117 -0.456382 -0.701942 -0.863196 -0.853229 -0.469989 -0.210796 0.158025 0.407518 0.266863 0.118321 0.104239 0.24995 0.00478288 -0.0640573 0.0562471 0.00736274 -0.0349417 0.00618994 0.0312457 0.029344 0.322848 0.365198 0.537543 0.849218 0.917122 0.698831 0.321216 -0.395854 -0.740611 -1.02726 -0.990123 -0.910578 -0.631224 -0.248615 0.00803313 0.303731 0.234385 0.161768 0.154242 0.0512874 -0.0201299 -0.0828116 -0.0211636 -0.0356365 -0.0329884 0.0097396 -0.00307334 -0.00590864 0.217949 0.422879 0.786189 0.875225 0.922404 0.701873 0.155103 -0.354176 -0.754261 -0.754023 -0.648305 -0.775639 -0.679509 -0.221054 0.108731 0.163959 0.337956 0.210729 0.0580996 0.123199 0.00754784 -0.0477666 -0.0202286 0.0307972 0.00530989 -0.0241997 -0.00733122 -0.0440092 0.179717 0.58986 0.686611 0.75313 0.762959 0.495167 0.246166 -0.286044 -0.408952 -0.770122 -0.769332 -0.894848 -0.701763 -0.044208 0.0661594 0.123597 0.238836 -0.0701875 -0.114287 0.0206035 -0.0440903 -0.125814 -0.0567371 -0.0225062 0.0182576 -0.0210227 0.00326782 0.0126206 0.14442 0.448656 0.426052 0.427403 0.74001 0.393551 0.145047 -0.171375 -0.437522 -0.460883 -0.708516 -0.913971 -0.586002 0.118463 0.38112 0.113246 0.270228 -0.266191 -0.230106 -0.0920382 -0.0410867 -0.0981993 -0.0784495 -0.00208213 -0.0226422 0.00529604 0.00890371 0.0270879 0.139446 0.136642 0.23606 0.0974264 0.223846 0.150233 0.428764 0.0281724 -0.229392 -0.41989 -0.761707 -0.916246 -0.193716 0.570437 0.566952 0.149992 0.299017 -0.247103 -0.288287 -0.107546 -0.119317 -0.108565 -0.0775862 -0.0303654 0.0541578 -0.00775247 0.00375224 -0.0201167 -0.0884603 -0.00157354 0.0650536 0.0303777 0.0689318 0.293065 0.435841 0.175833 0.0126777 -0.419382 -0.767506 -0.643629 0.0255727 0.600269 0.493744 0.232064 -0.055279 -0.174846 -0.374245 -0.306423 -0.185767 -0.0728292 0.00689091 0.035508 -0.00384215 0.0366404 -0.0506348 -0.12424 -0.238495 -0.0459671 0.0442387 0.0335628 0.101518 0.262373 0.405529 0.0533946 -0.124783 -0.520876 -0.411753 -0.184303 0.308467 0.562515 0.395254 0.0463953 -0.136987 -0.222213 -0.327894 -0.175314 -0.0285456 -0.00988141 0.00847425 -0.0165105 0.0501578 -0.0311437 -0.013695 -0.0886428 -0.248437 -0.276854 -0.189048 -0.156566 -0.148952 -0.205486 -0.142346 -0.201122 -0.316459 -0.432961 -0.140004 0.167413 0.5835 0.41313 -0.00792586 -0.0975304 -0.116675 -0.165173 -0.228075 -0.0674012 0.00895971 -0.00345149 0.0469857 0.0214578 -0.00514195 0.0563348 -0.0316064 -0.14633 -0.315391 -0.40868 -0.308656 -0.319084 -0.479182 -0.545988 -0.430312 -0.342677 -0.316149 -0.228224 0.0139832 0.284478 0.408692 0.0326888 -0.259136 -0.132432 0.0786373 0.030847 -0.0583468 -0.0116364 0.0440567 0.036391 0.000876108 0.00485781 0.033258 0.0584537 -0.030129 0.00385828 -0.170894 -0.293873 -0.42056 -0.377775 -0.403375 -0.648517 -0.510845 -0.141088 -0.134861 0.0929147 0.0875798 0.0881127 0.0139013 -0.00550497 -0.0154524 0.176174 0.113094 0.135257 -0.034106 -0.0217743 0.0543928 0.0254038 -0.00294806 0.00975783 -0.00564221 -0.00854221 0.0464899 0.00106584 -0.0482043 -0.159291 -0.259922 -0.43075 -0.444738 -0.499952 -0.302007 -0.0870728 -0.0684719 -0.0860058 0.132717 -6.03713e-05 -0.020872 0.208528 0.182573 0.210052 0.230947 0.113234 0.0681581 0.0422907 0.111452 0.054211 0.0496627 0.0459578 0.0250578 0.0194578 0.0109546 0.0208062 -0.0436406 -0.0607246 -0.0172582 -0.213031 -0.24987 -0.360921 -0.449657 -0.260865 -0.14507 0.0689986 0.201654 0.0754306 0.0658669 0.299276 0.265885 0.314085 0.380189 0.170528 0.137601 0.0976566 0.00225884 0.0517103 0.0495545 -0.0123422 0.0123578 -0.0211422 0.0233201 -0.0323886 0.058086 -0.017273 -0.0203395 -0.0436181 -0.152271 -0.248211 -0.239236 -0.195982 -0.0916007 0.14575 0.0245895 0.0428952 -0.0226555 0.163737 0.117632 0.203794 0.209793 0.112249 0.0138986 0.0510201 0.0372421 -0.0240357 -0.0404461 0.0420578 0.0183578 0.0239578 0.0255578 0.0476606 -0.00766714 0.024313 0.0420388 -0.0112277 0.0116837 -0.0931638 -0.169409 -0.0393511 -0.0010448 0.137169 0.037123 0.0427684 -0.0121648 -0.00388181 0.00920285 0.0355196 0.0450222 0.0273346 0.037061 -0.0267446 -0.00364294 0.0278578 0.0232578 0.0124578 -0.00944221 -0.0209422 -0.00404221 0.00485779 -0.0349217 -0.00233938 0.0066343 0.0309719 -0.0040864 0.0289395 -0.038263 -0.0423568 -0.0637474 -0.0158118 -0.0654682 -0.0576652 0.00754207 -0.0691268 0.0252252 0.0129242 0.00742598 -0.0161604 0.0129676 -0.0117087 -0.0281422 0.0311578 -0.0389422 -0.0260422 -0.0338303 0.0423697 -0.0184303 0.00406975 0.0229697 0.0353697 -0.00123025 0.00536975 0.00896975 0.0624697 0.0513697 -0.0288303 -0.0191876 0.0465484 0.0024322 -0.0107318 0.00286975 0.0516697 -0.0354303 -0.0126303 -0.000830251 0.0280697 0.0117697 0.0433697 0.0281697 0.0146697 0.0375697 0.0128697 -0.00313025 0.0464697 -0.0314303 0.0541697 -0.0292305 0.0270724 0.0544007 -0.0236727 0.0408009 0.0491767 0.0198109 -0.00111163 0.0319539 0.0519528 0.0238066 -0.00322455 0.0559077 0.0549912 0.0628594 0.0215008 0.021117 0.00345663 -0.0163496 0.00205178 -0.0104303 -0.0227303 -0.0246303 0.0201697 0.0372697 -0.0275303 0.0307963 0.0388712 0.0562794 0.040487 -0.0194547 0.0651429 -0.0116118 -0.00690621 0.0538033 -0.000697543 0.0670434 0.0290427 0.0255872 -0.0117658 -0.0042351 -0.0286177 -0.0339388 -0.0168331 -0.0171591 0.0502234 0.0150414 0.0280664 -0.00696283 0.0330962 0.0434697 0.0599697 -0.0304303 -0.0258303 0.0297252 0.0318014 0.0374899 0.00816826 0.0309089 0.0537577 0.0408444 0.0305403 0.026635 -0.0189689 0.0152042 0.00211373 -0.0204326 0.0245341 -0.0101912 -0.0287552 0.0126214 -0.0217217 0.01813 0.0568811 0.00884432 0.0246235 0.0329272 0.0415682 0.0450889 -0.00243025 -0.0230303 0.0348669 0.0160157 0.00623192 0.000980862 0.0510483 0.00868505 -0.0119757 -0.0613007 0.00498852 -0.0584476 -0.0671546 -0.0619514 -0.0705559 -0.0512001 -0.071675 -0.0185222 0.00819215 0.0236672 0.0161144 0.0152838 0.00450018 0.0826999 0.0594749 0.043274 -0.0104781 -0.0219347 0.0204407 -0.0240303 0.0223697 -0.0103383 -0.0370879 0.0264119 -0.00898807 -0.0572931 0.0175359 -0.0674955 -0.149105 -0.164467 -0.157833 -0.0957432 -0.103603 -0.0669027 -0.0212517 -0.0119565 0.0368691 0.0687398 0.0298497 0.113098 0.0310667 0.0968669 0.0372201 0.0217148 0.0313319 0.0214532 0.000458056 0.0201697 0.0055676 -0.0311384 0.0168502 -0.00788136 -0.0248816 -0.0803568 -0.180153 -0.170028 -0.115112 -0.166009 -0.102844 -0.0474345 0.0122393 0.0238574 -0.0113057 0.000769673 -0.0586325 0.0129012 0.00527418 -0.0189837 -0.0254905 -0.00111039 0.0692362 0.0546679 0.0568853 0.0307651 0.0296813 -0.0322311 0.0280477 -0.00225486 0.00945113 0.0321644 0.0108331 -0.124624 -0.153576 -0.15471 -0.162689 -0.151988 -0.0685409 -0.0411853 -0.0629667 0.000759461 -0.00926292 -0.065803 -0.120207 -0.0842462 -0.0331146 -0.10605 -0.048441 -0.0233502 0.0128353 0.0230304 -0.0191385 -0.0191729 0.0198636 -0.0194335 0.0479339 -0.0310836 -0.0106605 -0.0585457 -0.0353055 -0.0986187 -0.0323691 -0.122926 -0.100779 0.0143294 -0.046877 -0.041036 -0.0145448 -0.0949885 -0.0313984 -0.138014 -0.186766 -0.159274 -0.169889 -0.187319 -0.161713 -0.0889227 -0.0741786 -0.0240607 0.0329285 0.00699904 -0.0342805 -0.0233319 -0.00865646 0.0436606 -0.012864 -0.0325954 -0.0148361 -0.0324129 -0.0282718 -0.100742 -0.0561487 -0.0337506 -0.0227153 0.0197833 -0.00815296 -0.113737 -0.138259 -0.293096 -0.255214 -0.196898 -0.172654 -0.159866 -0.210433 -0.20706 -0.0344127 -0.021646 0.0602756 0.0068718 0.0540224 0.000367773 -0.00960892 0.0305442 0.00632186 -0.0215911 0.0213474 -0.0645265 -0.0447247 -0.0508288 0.00665601 -0.102621 -0.0073649 -0.093529 -0.189744 -0.247243 -0.19184 -0.231247 -0.248225 -0.22856 -0.205379 -0.176548 -0.108205 -0.0935852 -0.0191069 -0.00610522 0.0211495 0.00636834 0.0325751 -0.00224281 0.047313 -0.0173934 -0.0404548 -0.0200685 -0.0504364 -0.0527051 -0.0569851 -0.0845027 -0.130221 -0.105652 -0.0324707 -0.0734036 -0.0800121 -0.261739 -0.140716 -0.161145 -0.11239 -0.171893 -0.107991 -0.125446 -0.0867711 -0.0674177 -0.0295725 -0.0122072 -0.0318913 -0.0356921 -0.0254427 0.023565 0.0150341 -0.0120888 -0.015796 -0.0579892 -0.00597035 -0.0551881 -0.134218 -0.107235 -0.0531763 -0.023714 -0.0727926 -0.0330496 -0.0591881 -0.059462 -0.0571614 -0.0491484 -0.0370475 -0.0541841 -0.0657779 -0.137425 -0.120724 0.0179559 -0.0277705 -0.0410542 0.0306425 0.0358606 0.0175155 0.0457679 0.0489552 0.061974 0.0235256 -0.0462162 -0.0222846 -0.021665 -0.0769813 -0.060668 -0.075504 0.0280882 0.0491541 0.115229 -0.00346507 -0.0361432 -0.0813995 -0.000432471 0.02769 0.0332519 -0.0813342 -0.0547148 0.0209615 -0.0661041 -0.0663598 -0.0476772 -0.022233 -0.00920555 0.0146322 0.0261372 0.0300062 -0.0365583 -0.0505898 -0.0999735 -0.0415977 -0.0320426 -0.0410192 -0.070081 -0.0395585 0.0785578 0.087124 0.0118608 -0.0928174 -0.112709 -0.103334 0.00311086 0.0379429 -0.0217476 -0.0404324 0.00700419 -0.00150063 0.0194867 -0.0322697 -0.048656 -0.00833665 0.0317991 0.00544498 0.0206591 -0.00255812 0.0435346 -0.0105102 0.000168264 0.0503288 -0.0496621 -0.0135573 -0.0406186 0.00267008 0.029443 -0.0150161 -0.0721702 -0.0695512 -0.0054624 0.0185021 -0.083518 -0.0717639 -0.0671528 -0.0172183 -0.0745628 0.0102452 -0.0535084 -0.0207397 -0.0529774 0.0387791 -0.0432185 -0.0210274 0.01687 0.0601085 0.0485529 0.0516022 -0.00570344 -0.0348485 0.028461 -0.0439289 -0.0115305 -0.0462957 0.0718468 -0.0161905 -0.0598363 -0.182023 -0.117221 -0.10116 -0.143691 -0.0714737 -0.130342 0.0102295 -0.0139183 -0.0828866 -0.0445589 -0.0194701 -0.0849466 -0.0233123 -0.0266318 0.0483905 0.0435697 0.0241527 -0.0131382 0.000787313 0.0142236 -0.0619468 -0.0279053 -0.0416639 -0.0664997 0.016339 0.0321006 0.023363 -0.15169 -0.177168 -0.237287 -0.191465 -0.161565 -0.148631 -0.0307441 0.0039095 0.00985401 -0.0489931 -0.0945909 -0.0218781 -0.0294779 -0.0523519 -0.0141292 -0.0230306 -0.0293281 0.0565703 -0.0141639 0.0318393 -0.0285638 -0.0626781 -0.00777743 -0.0207836 -0.0167513 -0.0175182 -0.00373743 -0.044766 -0.0739457 -0.170159 -0.216459 -0.198739 -0.128322 -0.0737088 0.0602771 -0.00326799 0.0314009 -0.128778 -0.0895541 -0.0347239 -0.0469702 0.0358294 0.0339034 0.0171449 -0.0352311 -0.00225106 0.0603578 -0.0141259 -0.0437196 -0.0421989 -0.105474 0.0207392 -0.0180688 0.0049035 0.0334585 0.0314808 0.0199311 -0.0433289 -0.0984815 -0.119324 -0.0840892 -0.0460443 0.0333422 0.0205004 0.03146 -0.103457 -0.0162097 0.0148954 0.034849 -0.0144065 0.0292573 -0.0378517 0.00296975 0.0283596 0.00417299 0.0152969 0.00312236 0.019365 -0.0778405 -0.0860795 -0.0286509 0.000517151 0.0250564 0.0217754 -0.0313721 -0.123225 -0.117414 -0.0254442 0.0107145 -0.0108975 -0.0821015 -0.00607118 -0.0661349 -0.0995805 0.00013069 0.0299882 0.0513886 -0.0395173 0.0375778 0.00687023 0.0422672 0.0117584 -0.0214042 0.0136813 0.0072828 -0.0459675 -0.0760955 -0.0378658 -0.0571248 -0.0125231 -0.0127548 -0.00698292 0.0162509 -0.0936409 -0.140735 -0.0514752 -0.0029921 -0.0944787 -0.0694821 -0.0812183 -0.036899 -0.0587529 0.00934905 -0.0163403 0.0362369 -0.0094239 0.0307526 0.04357 0.0606673 0.022769 0.015501 -0.0246162 0.00676484 -0.0546684 -0.0319072 -0.0585131 -0.034878 -0.0367523 -0.101681 -0.0152904 0.0434927 -0.0425051 -0.0652614 -0.0647132 -0.104969 -0.13612 -0.151961 -0.0808647 -0.0217792 -0.00493839 -0.0332786 0.000724543 0.0271447 0.0110103 0.0086699 0.0565702 -0.00803025 0.0110697 0.059241 0.0335723 -0.0603224 -0.0808488 -0.0145936 -0.00840308 -0.0346574 -0.00151143 -0.00863976 -0.0634864 -0.0717902 -0.113605 -0.123694 -0.0692973 -0.0827789 -0.100311 -0.145306 -0.0271893 -0.0313004 -0.0452267 -0.00501997 -0.00728665 -0.0251341 -0.021487 -0.0155315 -0.0109303 -0.0305303 0.0601697 0.0481817 -0.0246835 0.0463872 -0.0257054 -0.0414869 0.0214389 -0.0264807 -0.00740117 -0.0230652 -0.0862083 -0.107402 -0.179686 -0.0959538 -0.0274699 -0.0937446 -0.0248595 -0.0599621 0.019779 0.0510406 0.053669 0.00274593 0.0465669 -0.0277207 0.00686785 -0.0275415 0.0435697 0.0318697 0.0371697 0.0559255 0.0283605 -0.0230194 -0.00101896 -0.0356765 0.0461541 0.0215644 -0.0359726 0.020591 -0.0165482 -0.120563 -0.0699962 -0.0328395 0.0178056 0.000270081 -0.0272824 -0.0304632 0.0245856 0.0605469 0.0206796 -0.0167384 0.0249842 0.0619742 -0.0250096 -0.0261447 0.0569697 0.0211697 0.0188697 0.0548697 -0.0166249 0.0317749 0.0309276 -0.00708803 -0.0218176 0.0499702 0.000500758 0.0416374 0.0647655 -0.0078599 0.0212452 -0.0272746 -0.0289141 0.0574677 -0.0301572 0.00267247 0.0328142 -0.00929653 0.0443228 -0.00890317 0.0235848 0.0618711 0.0169698 0.0570697 0.000169749 -0.0110303 0.0581697 0.00436975 0.0531697 -0.0316063 0.0179434 0.0398302 -0.0348674 0.00144119 0.00901277 0.0488127 0.039761 -0.0126615 -0.0157251 0.0303073 -0.0313103 0.0287452 0.00935154 -0.00241722 0.0219031 0.0261992 -0.0207731 0.000186405 -0.0201622 0.0264697 -0.0145303 0.0388697 0.0629697 -0.28055 -0.25375 -0.26925 -0.27005 -0.22985 -0.26685 -0.24235 -0.24765 -0.28665 -0.26385 -0.25935 -0.30815 -0.203359 -0.0919043 -0.24155 -0.29505 -0.24375 -0.29855 -0.30145 -0.28585 -0.30655 -0.24895 -0.22795 -0.24545 -0.25865 -0.22605 -0.28805 -0.25985 -0.30225 -0.26415 -0.26415 -0.26265 -0.23745 -0.24525 -0.276527 -0.276759 -0.160691 -0.252325 -0.223356 -0.246601 -0.102921 -0.177397 -0.2996 -0.256863 -0.133838 -0.216038 -0.246838 -0.234798 -0.246909 -0.296182 -0.189028 -0.231593 -0.24935 -0.30445 -0.25415 -0.26375 -0.23195 -0.21135 -0.24975 -0.24945 -0.302622 -0.225258 -0.245116 -0.220209 -0.0835108 -0.169829 -0.138241 0.0602198 0.369386 0.248158 0.175785 0.152625 0.367921 0.208464 0.0364543 -0.00924918 -0.0192016 0.0201671 0.143704 -0.0952965 -0.288987 -0.30945 -0.25435 -0.26095 -0.27075 -0.23595 -0.255751 -0.232162 -0.209381 -0.284924 -0.301466 -0.147379 0.164849 0.184071 0.264931 0.749077 0.514241 0.378951 0.518996 1.32717 1.53029 1.2446 1.00021 0.664742 0.375024 0.599142 0.416694 -0.226731 -0.321231 -0.252065 -0.24665 -0.30735 -0.27325 -0.26285 -0.271554 -0.317366 -0.292774 -0.277595 -0.352077 -0.0956613 0.235305 0.316771 0.480966 0.321106 -0.124715 -0.377605 -0.20512 0.808288 0.325421 0.150729 0.327092 0.204368 0.313726 0.277472 -0.242038 -0.448101 -0.442433 -0.307136 -0.239698 -0.27949 -0.28455 -0.26895 -0.237542 -0.302934 -0.332552 -0.200683 -0.234465 -0.276275 0.126134 -0.401776 -0.210927 -0.141103 -0.0538267 0.948433 1.02934 0.77216 0.23679 0.50708 0.339062 0.565837 -0.563796 -1.14074 -1.28988 -1.41216 -1.14245 -0.309557 -0.251297 -0.233711 -0.28155 -0.26185 -0.310555 -0.226357 -0.452367 -0.441165 -0.42658 -0.746456 -0.977469 -1.56539 -1.54215 -1.12146 -1.08494 -0.00388942 0.56851 0.743129 0.740878 0.711771 0.0912898 -0.596807 -1.58703 -2.19637 -2.40123 -2.44177 -1.60348 -0.56719 -0.345577 -0.258081 -0.25565 -0.255353 -0.226763 -0.279897 -0.57644 -0.368495 -0.782864 -1.37893 -1.55547 -1.99986 -1.83556 -1.80227 -1.61527 -0.476897 0.272368 -0.151803 -0.52898 0.105025 -0.707523 -1.0662 -1.92837 -1.96718 -1.80034 -2.1279 -1.6533 -1.04217 -0.416735 -0.321628 -0.23265 -0.295301 -0.284991 -0.377361 -0.630248 -0.69626 -1.85748 -2.55818 -2.05879 -1.69089 -1.22157 -1.87711 -1.80124 -1.01898 0.254098 0.0400883 -0.859436 -0.285257 -1.12222 -1.6122 -1.40614 -1.394 -1.1346 -1.99641 -2.00393 -1.46377 -0.531664 -0.423447 -0.28065 -0.236153 -0.285119 -0.396813 -0.968719 -1.55828 -2.16932 -2.78195 -2.70092 -1.44544 -1.09383 -1.20449 -1.13108 -0.839269 -0.0247872 0.207542 -0.748213 -1.26012 -1.30502 -1.73138 -1.09211 -1.37955 -1.01188 -1.91643 -2.22586 -1.21838 -0.429839 -0.324876 -0.24045 -0.311579 -0.278858 -0.468501 -1.05206 -1.36672 -2.11066 -2.39052 -2.5488 -1.43169 -1.05738 -1.53284 -2.19528 -1.50104 -1.25716 -1.13784 -2.63155 -1.58284 -1.37803 -0.998093 -0.413277 -0.509745 -0.645504 -1.04702 -1.53382 -0.619086 -0.326188 -0.244871 -0.29145 -0.229652 -0.27786 -0.454631 -0.845121 -1.05415 -1.59713 -1.86213 -1.73483 -1.50952 -1.53075 -2.58827 -2.48787 -1.25188 -1.73771 -2.5887 -2.24233 -1.73448 -1.54636 -0.651653 0.602765 0.557006 0.5909 0.117659 -0.296494 -0.547911 -0.31909 -0.259811 -0.25605 -0.232553 -0.284095 -0.308759 -0.598824 -1.02265 -1.3021 -1.31242 -1.13969 -1.29522 -1.54539 -2.02908 -0.717926 -1.64261 -3.54195 -3.54282 -2.8707 -2.82093 -1.96884 -0.855119 0.0437197 0.392496 0.814112 0.853474 0.368056 -0.0912703 -0.0970407 -0.307293 -0.25665 -0.274784 -0.221374 -0.319384 -0.25563 -0.347326 -0.33194 -0.471225 -0.661332 -0.380781 -0.558684 -0.942956 -0.875192 -1.98487 -3.19855 -3.20026 -3.13781 -2.7192 -2.0929 -0.873552 -0.488042 -0.106588 0.0318421 0.297668 0.49566 -0.0313184 -0.152798 -0.226372 -0.28045 -0.290848 -0.277821 -0.338903 -0.019613 0.376734 0.806162 0.503638 -0.150555 0.319025 0.658311 0.69566 -0.69149 -1.72806 -1.33274 -2.33223 -2.39885 -1.83395 -1.32718 -0.943053 0.200986 0.0251471 0.312008 0.142387 -0.354929 -0.196581 -0.259423 -0.257318 -0.21305 -0.266046 -0.240476 -0.316524 0.0151415 0.798342 1.21754 1.29968 1.09483 0.621846 1.50608 1.60071 -0.32346 -1.16402 -1.34456 -2.48281 -2.04946 -1.2543 -1.48994 -1.18886 -0.540357 0.116281 0.0507818 -0.43192 -0.835462 -0.164009 -0.218792 -0.278965 -0.28235 -0.330477 -0.330115 -0.364753 -0.0241119 0.784959 1.23236 1.2858 1.74266 2.06324 2.3944 1.90361 0.060793 -1.18056 -1.76291 -2.61708 -1.38149 -0.299348 -0.858456 -0.413221 -0.104367 0.367837 0.926277 -0.266567 -0.138897 0.37094 -0.105465 -0.279136 -0.27075 -0.318336 -0.422078 -0.516134 -0.0243534 0.942239 1.30845 1.65907 2.33038 3.09223 3.03221 2.14957 0.504785 -0.8299 -2.43438 -1.70179 0.0382434 0.627927 0.00797732 0.869256 0.838993 0.860137 0.907441 0.0511134 0.175425 0.353351 -0.0268439 -0.235117 -0.23085 -0.246498 -0.44171 -0.332913 0.111729 0.699563 0.949182 1.1888 2.5645 2.86257 3.51515 2.56843 1.32428 -0.272297 -1.8487 -0.861541 0.912671 0.368573 0.661328 1.34055 0.281869 -0.255418 -0.0485615 0.624305 0.979401 0.195789 -0.229033 -0.23972 -0.25615 -0.271439 -0.391222 -0.320038 -0.111385 0.480077 0.784538 0.811192 1.05994 1.82389 2.68602 2.45985 1.16182 -0.888054 -1.03815 -0.381429 0.337048 0.466808 0.79601 0.597008 -0.120023 -0.516668 -0.0569022 0.529111 0.838408 -0.0198284 -0.2377 -0.263758 -0.29365 -0.308521 -0.294272 -0.222683 -0.0889754 0.268563 0.386106 0.742957 -0.133808 0.714515 1.48236 1.14429 0.467257 -0.327425 -0.119535 0.993112 1.23649 0.745044 0.964634 0.52278 -0.123435 0.259677 0.391319 0.792483 0.850765 0.0989876 -0.28023 -0.25355 -0.22095 -0.318793 -0.291553 -0.258336 0.0430469 0.36052 -0.30406 0.390655 -0.37494 -0.124415 0.402083 -0.139223 0.0130953 -0.389191 0.0542754 0.657278 0.800598 0.560372 1.24759 0.537357 -0.124367 0.231237 0.419507 0.462385 0.246811 -0.140955 -0.254137 -0.29575 -0.24245 -0.28195 -0.312907 -0.0898235 0.0523361 -0.0323828 -0.169308 0.252455 -0.100158 -1.19246 -1.10877 -1.6906 -1.63631 -1.21 -1.16765 -1.26141 -1.45876 -0.673833 -0.564077 -0.010114 -0.181288 0.0793215 0.0895435 -0.165018 -0.29328 -0.251619 -0.21543 -0.30135 -0.21245 -0.26605 -0.275404 -0.0731876 -0.329808 -0.369267 -0.433112 -0.388002 -0.0732784 -0.442493 -1.06818 -1.58811 -2.33181 -2.41278 -2.79709 -2.87624 -2.82527 -2.50739 -1.49171 -0.312584 -0.576657 -0.426869 -0.237723 -0.275572 -0.266506 -0.266881 -0.299384 -0.25415 -0.28655 -0.31055 -0.301756 -0.33966 -0.432307 -0.647275 -0.853462 -0.997163 -0.842121 -0.798194 -0.967231 -1.02308 -0.719289 -1.36978 -1.61075 -1.44494 -1.58371 -1.65721 -1.09808 -0.718141 -0.839777 -0.82836 -0.363777 -0.361158 -0.280643 -0.286315 -0.21889 -0.22425 -0.21665 -0.27585 -0.24315 -0.384576 -0.361074 -0.401072 -0.472234 -0.676817 -1.23691 -1.38767 -1.46516 -1.25001 -1.17308 -1.29764 -1.15022 -0.845984 -0.781237 -0.769908 -0.641947 -0.457082 -0.421978 -0.354501 -0.326304 -0.355466 -0.2952 -0.277012 -0.22556 -0.21905 -0.21985 -0.29675 -0.28855 -0.287508 -0.210187 -0.344065 -0.30547 -0.275655 -0.403111 -0.478528 -0.438376 -0.519316 -0.364295 -0.515867 -0.402294 -0.408424 -0.440242 -0.345819 -0.29184 -0.248645 -0.301694 -0.283986 -0.271778 -0.301014 -0.28725 -0.25275 -0.22415 -0.28505 -0.29365 -0.27325 -0.24115 -0.30445 -0.29905 -0.23412 -0.223237 -0.264907 -0.217189 -0.247239 -0.322322 -0.287732 -0.226548 -0.343898 -0.368372 -0.258887 -0.268454 -0.253001 -0.235836 -0.296559 -0.347823 -0.285178 -0.2881 -0.248731 -0.27795 -0.29405 -0.24215 -0.23695 0.191799 0.125799 0.154699 0.187999 0.106899 0.182399 0.170699 0.120099 0.122399 0.152399 0.180999 0.149499 0.104399 0.126699 0.152799 0.178999 0.144499 0.110999 0.107799 0.191499 0.177799 0.186199 0.118399 0.172999 0.154899 0.173399 0.188099 0.109199 0.147799 0.149199 0.187699 0.122199 0.099999 0.163999 0.158699 0.156522 0.142741 0.174672 0.118559 0.162545 0.104535 0.120459 0.165021 0.172925 0.174274 0.189519 0.161765 0.145107 0.168223 0.124439 0.109632 0.173399 0.183799 0.166199 0.101699 0.108499 0.142499 0.162799 0.177499 0.156999 0.140646 0.129443 0.0905132 0.100206 0.18679 0.093626 0.104578 0.123016 0.0422204 0.111378 0.113575 0.0263612 0.104 0.0668244 0.171955 0.0959331 0.125476 0.17683 0.0992552 0.154663 0.155432 0.117799 0.125799 0.115499 0.124999 0.168999 0.145999 0.186425 0.185684 0.168597 0.0989667 0.178632 0.137393 0.10424 0.181185 0.019253 0.00661178 0.0524578 0.119216 0.133056 0.0291223 -0.00687765 0.055362 0.117862 0.158147 0.107176 0.121154 0.120837 0.130687 0.122977 0.171199 0.120999 0.170399 0.125399 0.159899 0.101989 0.186738 0.165965 0.162082 0.00761996 -0.0253609 0.0136518 0.0584975 0.0678809 0.00355272 0.0594532 0.231543 0.195841 0.0714334 -0.12807 -0.160125 0.0194671 -0.112936 0.00801596 0.1607 0.326182 0.347757 0.161601 0.180014 0.147999 0.118099 0.171499 0.116706 0.126784 0.0750322 0.00442936 -0.0523062 -0.0489789 0.00623574 -0.10655 -0.377428 -0.818739 -0.992099 -1.51424 -1.8261 -1.76178 -1.35311 -1.12157 -0.943292 -0.959498 -0.475247 -0.0749072 0.1406 0.483431 0.703303 0.386156 0.152213 0.177098 0.171199 0.184699 0.206516 0.155964 0.275342 0.0533906 -0.151789 -0.18495 -0.392502 -0.895876 -1.5098 -1.69236 -1.79434 -2.47985 -3.02624 -2.32496 -1.8504 -1.19276 -1.14616 -1.01816 -0.554009 0.212998 0.437588 0.804001 1.16805 0.748368 0.237404 0.18446 0.108504 0.113845 0.204409 0.228627 0.09579 0.0500442 0.547848 0.80308 0.291712 -0.248588 -0.473728 -0.147753 -0.388842 -1.35806 -2.0039 -2.33657 -1.27439 -0.0857249 0.386245 0.484054 0.619396 0.746001 0.90755 1.3787 1.66483 1.05087 0.529569 0.18565 0.16352 0.120119 0.126078 0.335917 0.38725 0.591695 1.11833 1.69237 0.851778 0.876958 1.51212 1.85893 0.853786 0.205829 -0.136499 -0.386793 -0.414456 1.06666 1.52647 1.60409 1.49432 1.39268 1.19661 1.57338 1.82476 0.901894 0.269763 0.0978389 0.144702 0.121444 0.115529 0.497803 0.675996 1.01379 1.25795 1.27043 0.686697 1.01663 1.55869 1.53208 0.797426 0.751943 1.06838 1.31826 1.6779 2.20304 1.68915 1.32613 0.806398 1.05713 0.960624 1.22965 1.46437 0.901888 0.37526 0.210442 0.115899 0.12219 0.182199 0.441692 0.775099 0.614197 1.08167 1.25374 0.131539 0.64911 1.09194 1.06933 1.42904 1.3863 1.4184 1.28865 1.29861 1.38896 1.49867 0.180939 0.17593 0.579147 0.597392 0.0909619 0.631489 0.880692 0.454661 0.122843 0.124904 0.149588 0.20359 0.363115 0.656843 0.619906 1.30896 1.28691 0.606596 1.15451 1.24597 0.991918 0.980508 0.419895 -0.930494 -1.00974 -0.298085 0.791177 0.424457 -0.978451 -0.486876 -0.425306 -0.591396 -0.730046 -0.245292 0.289797 0.277747 0.154867 0.135599 0.144555 0.21987 0.224005 0.629682 0.541894 0.634702 0.59771 0.832356 0.9714 0.458677 0.31184 -0.620451 -1.55719 -2.73715 -2.23804 -1.11125 0.0602318 -0.18377 -1.25791 -0.816384 -0.859569 -1.37969 -1.32277 -0.746817 0.212254 0.178034 0.120705 0.100599 0.178259 0.250162 0.118426 0.192563 -0.0659411 -0.184404 0.0613074 1.03952 -0.326747 -0.751981 -0.778231 -1.53538 -2.93129 -3.15243 -2.99233 -2.13836 -0.668804 -0.473724 -0.877072 -0.481911 -0.250102 -1.44793 -1.5056 -0.719435 0.119136 0.15384 0.138094 0.183199 0.120179 0.203402 0.086929 -0.124092 -0.530752 -0.806799 -0.282178 0.405493 -0.898709 -1.73031 -2.31423 -2.27576 -2.54833 -2.44951 -2.52085 -2.07791 -0.666743 -0.41992 -0.784674 -0.335271 -0.205506 -0.681055 -1.18197 -0.643587 0.0501531 0.172335 0.133099 0.125499 0.170562 0.15895 0.0584183 -0.275039 -1.31318 -0.669859 -0.44937 -0.462011 -1.25213 -2.03443 -2.1926 -1.84303 -1.63322 -1.61566 -1.44371 -1.12306 0.0180096 -0.158738 -0.0871306 0.243397 -0.0483112 -0.203481 -0.832243 -0.665426 0.0076623 0.186678 0.179139 0.173199 0.130626 0.087395 0.124373 -0.45158 -1.28333 -1.14386 -0.74323 -1.24563 -1.47047 -1.87075 -2.05104 -1.74642 -1.57686 -1.36103 -0.652774 -0.345508 0.389541 -0.120834 0.312708 0.434643 0.514897 -0.113956 -0.651893 -0.467362 0.0319771 0.176163 0.123438 0.161399 0.156401 0.177317 0.223154 -0.149857 -0.918871 -0.820097 -0.923132 -0.841115 -1.25711 -0.936788 -0.621385 -0.81146 -0.520433 0.0929568 -0.0640982 -0.149462 0.272683 -0.236183 -0.563009 -0.384071 0.0198624 -0.402753 -0.434177 -0.225936 0.0115606 0.159152 0.129942 0.104594 0.129599 0.144976 0.201602 -0.0264869 -0.43633 -0.235861 -0.298815 -0.599327 -0.723346 -0.882739 -1.12208 -0.910154 -0.128722 0.258486 0.000277602 0.116553 -0.102637 -0.951498 -1.09367 -0.434355 0.0035482 -0.51449 -0.387741 -0.322523 0.0223611 0.132063 0.10711 0.109099 0.130044 0.20209 0.183099 -0.122147 -0.0728681 0.0345988 0.32907 -0.227429 -0.789778 -0.739961 -0.983075 -0.341554 0.417638 0.182608 -0.0669657 -0.586875 -1.16273 -1.17022 -0.802537 -0.304605 -0.33518 -0.405165 -0.388281 -0.0786556 0.145316 0.162254 0.135487 0.144699 0.125208 0.153153 0.123882 -0.13717 -0.209237 -0.538834 -0.127834 -0.255093 -0.715648 -0.582962 -0.397075 0.721656 0.294845 0.0130303 -0.615044 -1.18399 -1.83549 -0.816694 -0.425496 -0.653077 -0.824956 -0.420035 -0.258818 0.0206018 0.0389413 0.159367 0.156323 0.187287 0.180864 0.166041 0.118143 -0.125275 -0.246444 -0.73526 -0.90194 -0.647988 -0.66057 -0.193147 -0.126458 0.190649 0.0168441 -0.906497 -0.894653 -1.79897 -1.57669 -0.22566 -0.0686568 -0.394472 -0.308721 -0.177981 -0.0296514 0.00356945 0.128059 0.122235 0.148599 0.137987 0.0989953 0.128207 0.0415871 0.074837 -0.251194 -0.885464 -1.19569 -1.00622 -0.738896 -0.4033 -0.0254684 0.194216 -0.527526 -0.224206 -0.469792 -1.21108 -0.549304 0.712457 0.482186 0.0874589 -0.148602 -0.0713773 -0.0502658 0.032438 0.0771837 0.170439 0.173599 0.112799 0.100099 0.121251 -0.0169802 0.156977 0.174361 -0.285393 -0.397719 -0.527045 -0.426147 0.0313627 0.305986 0.394638 0.250121 0.738631 0.0743295 -0.471781 0.18827 0.579867 0.529262 0.116855 -0.251475 -0.0453835 0.0438948 0.09021 0.18598 0.14536 0.158599 0.182299 0.158699 0.192499 0.179541 0.283897 0.295701 0.273654 0.492368 0.321267 0.495167 0.589894 0.560566 0.797532 0.916043 1.38668 0.899455 0.23656 0.325338 0.268737 0.401115 0.140527 -0.0379007 0.160046 0.11472 0.138207 0.117983 0.113645 0.173199 0.145099 0.149699 0.184099 0.164573 0.281363 0.319488 0.512128 0.857296 0.982885 1.09949 0.91084 1.33059 1.47387 1.39817 1.60899 1.65957 1.09719 0.352167 0.377775 0.595934 0.22494 0.167544 0.235306 0.14036 0.182376 0.175199 0.185199 0.135799 0.190199 0.181799 0.106399 0.16449 0.137339 0.211776 0.243758 0.270545 0.239774 0.274502 0.203543 0.339044 0.335347 0.806615 0.542266 0.649248 -0.00310198 -0.228419 0.126496 0.450732 0.320027 0.140567 0.21469 0.18586 0.149499 0.12981 0.156799 0.126499 0.178499 0.166599 0.117499 0.158499 0.178362 0.191344 0.0927601 -0.000676291 0.0518936 0.160362 0.159398 0.171168 0.0290108 0.180401 0.0776349 -0.0573824 -0.178381 0.132835 0.0586488 0.202632 0.196656 0.17593 0.24892 0.150626 0.182299 0.142199 0.118599 0.189499 0.0309744 -0.00202561 0.0377744 0.00377439 -0.0286256 0.0133744 -0.0263256 0.0188744 -0.0116256 -0.00952561 -0.0393256 0.0489744 -0.0156718 0.0682909 -0.00402328 -0.0244214 -0.0247256 -0.0292256 -0.0297256 0.0482744 -0.00322561 0.00567439 -0.0313256 0.0227744 -0.0485256 -0.0364256 0.0498744 -0.0215256 0.0242744 0.0135744 0.0462744 0.0367744 -0.00122561 0.0213665 0.0273054 0.0829129 -0.0173067 -0.00318788 0.0630971 -0.0171146 0.030454 0.00272133 0.0369267 0.0511601 0.0289553 -0.0256638 -0.0344873 0.00952592 0.0187986 0.0261394 0.0156641 0.0150839 -0.0475256 -0.00342561 -0.0215256 0.0386744 0.00907439 0.000774386 0.0143744 0.0383895 -0.0159551 -3.2741e-05 -0.0109145 0.0925167 0.0701553 0.106864 0.0881437 0.0978021 0.0993524 0.104878 0.10631 0.11142 0.072633 0.0912959 0.0542515 0.141647 0.0943368 0.0141883 0.0464222 -0.0136492 0.0164142 0.00447436 0.0339744 -0.0353256 0.0317744 0.0466744 0.0193382 -0.0257329 -0.0302747 0.0175052 0.0145822 0.0221567 -0.0103762 0.0241399 -0.0410173 0.0628043 0.144165 0.128363 0.164583 0.0750118 0.118246 0.145738 0.191517 0.200029 0.132607 0.0816304 0.089856 -0.00687447 0.0583154 -0.0203467 -0.0161256 -0.0252256 -0.0149256 0.0348744 0.0306363 -0.00735064 0.0430781 -0.0468222 -0.067111 0.0132985 -0.0399529 -0.141762 -0.109773 -0.21963 -0.201859 -0.193943 -0.229775 -0.139618 -0.0104036 0.0266542 -0.104725 -0.127571 -0.0634455 -0.0426743 -0.104751 -0.0510588 -0.0639119 0.0470729 -0.0172999 -0.00752088 0.00667439 -0.0426256 0.0483148 -0.00204652 -0.0108903 -0.100575 -0.0529293 -0.166087 -0.416631 -0.507621 -0.337809 -0.268969 -0.569985 -0.671464 -0.607542 -0.696961 -0.46255 -0.390966 -0.313189 -0.467015 -0.434446 -0.201177 -0.212102 -0.142864 -0.0308405 0.00465638 -0.0235373 0.0199075 -0.0196256 0.0204743 0.00446838 0.0427029 0.0368216 0.0282667 -0.165034 -0.440344 -0.586118 -0.53763 -0.313368 -0.277413 -0.565398 -0.806236 -0.785596 -0.410817 -0.182053 -0.184979 -0.163173 -0.174779 -0.255099 -0.421541 -0.386898 -0.14271 -0.0673849 0.0183907 -0.00224567 0.0396209 0.028076 -0.0030998 -0.0320969 0.021977 -0.0435734 -0.0764911 -0.155679 -0.371439 -0.361929 -0.170714 0.0333325 -0.157524 -0.126351 -0.308523 -0.145271 0.0273019 -0.0260942 -0.0534999 -0.118071 -0.163857 -0.501562 -0.617919 -0.427948 -0.162297 -0.0146625 0.0852762 -0.00386066 0.0527313 0.000681041 0.0034619 -0.00248684 -0.0292436 -0.00754763 -0.0463337 -0.142503 -0.193969 -0.206439 -0.0609936 0.127724 0.0906843 0.00589678 0.0478364 0.149576 -0.171923 -0.359772 -0.278099 -0.292997 -0.536756 -0.755321 -0.517635 -0.355965 -0.266364 -0.000328213 0.0347326 0.0278085 -0.0341509 -0.00773004 -0.022119 0.0158325 0.00587785 -0.0332383 -0.0474216 -0.00498465 -0.0433663 -0.0317657 -0.0616674 -0.13531 -0.179177 -0.00654408 0.249428 0.348217 -0.132701 -0.510499 -0.267683 -0.421787 -0.539292 -0.633369 -0.348102 -0.299181 -0.211866 -0.0341284 0.0354112 -0.00945774 -0.0155666 0.0424711 0.0536212 0.00684714 0.0494402 -0.0639786 -0.126081 -0.0572793 -0.00259637 0.025338 -0.352977 -0.334327 -0.217917 0.030924 0.295003 0.202359 -0.225305 -0.285932 -0.243699 -0.459786 -0.372118 -0.46713 -0.302768 -0.283854 -0.23501 -0.0993512 0.0229919 -0.0156354 -0.00221339 0.0324053 0.0465417 -0.0193951 -0.0225368 -0.000152896 -0.0211969 0.0186659 0.161594 0.0942499 -0.162893 -0.291767 -0.0271875 0.271209 0.343425 0.266772 0.0437069 -0.0534552 0.0154004 0.0350885 -0.191494 -0.337532 -0.34668 -0.168041 -0.149086 -0.126694 -0.0563107 0.00910246 0.00800318 0.0482806 0.00549184 0.0747997 0.0134916 0.0867041 -0.0271902 -0.0761167 0.0707931 -0.0271474 -0.00380774 -0.0694875 0.0250758 0.35866 0.337451 0.372983 0.239246 0.239633 0.181146 0.208955 -0.0229589 -0.165048 -0.102819 -0.0364646 0.000608229 -0.0390284 0.0569162 -0.0181767 -0.0318911 0.0451652 -0.0302753 0.0415403 -0.0157965 0.0218629 -0.0948718 -0.0384074 -0.13743 -0.0776506 0.0761494 -0.0739941 -0.0752113 0.376755 0.244886 0.373217 0.160972 0.37978 0.309733 0.426963 -0.118428 -0.153263 -0.053676 -0.025851 0.00997047 0.139345 0.0516974 0.0398373 0.0498883 -0.0370256 -0.0371129 -0.0216279 0.0382276 -0.0843556 -0.239784 -0.0895831 -0.13365 -0.079926 -0.0348174 -0.167454 0.024224 0.105316 0.161868 0.144943 0.239153 0.374053 0.421052 0.243194 -0.0842682 -0.0801453 0.00607145 -0.0711122 0.123166 0.0632943 0.0401649 0.0245514 0.0225732 0.0102931 0.00977235 -0.0297286 0.0429508 -0.0603049 -0.338982 -0.121235 0.0424737 -0.104177 0.1649 0.242439 0.437876 0.263849 -0.153298 -0.0987399 0.100611 0.154056 0.132691 0.125564 0.0582768 0.0551337 0.0755822 -0.150812 -0.0387135 0.0214092 0.0156354 0.00878003 0.0503728 -0.0232188 -0.023976 0.0272319 0.0233939 -0.116037 -0.288259 -0.194087 -0.118523 -0.469749 -0.150425 0.150847 0.349443 -0.154962 -0.539745 -0.484502 -0.425447 -0.262973 -0.101858 0.0789321 -0.0293693 -0.119096 -0.144431 -0.117244 -0.1792 0.0316104 -0.00404241 0.00791203 -0.00323824 -0.0428256 0.0374841 0.0461173 0.0676169 0.00929259 -0.123364 -0.184009 -0.381759 -0.547915 -0.496348 -0.305961 -0.381507 -0.780863 -0.914428 -0.761345 -0.540146 -0.228222 -0.0302324 0.16838 -0.110237 -0.280326 -0.224962 -0.209572 -0.137461 -0.0307308 -0.0580657 0.0194401 -0.0281408 0.00203533 -0.0363887 -0.0315005 0.115998 0.0571904 0.0294104 -0.104671 -0.21945 -0.355284 -0.33942 -0.344321 -0.575264 -0.909888 -0.890281 -0.553467 -0.172386 0.0478791 0.318077 -0.0330395 -0.0330035 -0.159494 -0.190084 -0.255896 -0.254962 -0.117648 -0.0818212 -0.0109089 0.0426537 -0.0287256 -0.0251289 0.0206205 0.0138754 0.0161138 0.066135 -0.0744589 -0.245763 -0.269589 -0.205617 -0.29739 -0.492768 -0.549612 -0.333656 -0.081479 -0.0227009 0.154726 0.155744 -0.137017 -0.121844 -0.0783994 -0.0651515 -0.179919 -0.206325 -0.159405 -0.045397 0.0121558 -0.0283498 0.00967439 0.0212722 -0.021357 0.0282538 0.107122 -0.00763454 -0.235035 -0.308806 -0.284192 -0.244668 -0.25787 -0.315602 -0.153262 0.188165 0.100727 -0.140223 -0.249107 -0.128926 -0.1901 -0.36121 -0.289184 -0.129056 -0.0844617 -0.263708 -0.17383 -0.0414281 0.0464167 -0.0393081 -0.00842562 0.00873463 0.0109487 -0.0179784 0.11763 0.0134802 -0.267217 -0.35234 -0.496499 -0.44692 -0.129198 -0.16645 -0.103965 0.152389 -0.0171866 -0.325376 -0.271506 -0.257954 -0.0266876 -0.223269 -0.222036 -0.177142 -0.196807 -0.274557 -0.110208 -0.0555841 0.0278771 0.0183748 -0.0463256 0.0311744 -0.0424854 -0.017813 -0.00314678 -0.0406318 -0.148992 -0.398392 -0.646707 -0.55858 -0.445576 -0.484931 -0.542581 -0.375532 -0.174636 -0.322815 -0.344557 -0.221511 -0.207035 -0.319665 -0.419308 -0.460311 -0.349293 -0.194384 0.00265356 0.0108254 0.00881457 -0.0377249 -0.0134256 -0.0415256 -0.0287538 -0.00491844 -0.0150974 0.0480994 0.0333672 -0.0102028 -0.250787 -0.212135 -0.268403 -0.340559 -0.522184 -0.230199 -0.148188 -0.289529 -0.0565473 -0.118322 -0.269804 -0.398951 -0.542173 -0.395833 -0.189567 -0.0833267 -5.46331e-05 -0.0290942 0.00951768 -0.0317256 -0.000225614 -0.0433256 -0.000134929 0.0285959 0.0733884 0.0158326 0.0874669 0.210801 0.238072 0.107408 0.143364 -0.00754134 -0.0517202 0.125856 0.232115 0.0755286 -0.163014 -0.161695 -0.21755 -0.164688 -0.205906 -0.087127 -0.0253292 0.00787226 0.0420928 0.0125088 -0.0217257 0.00947439 0.00387439 -0.0111256 -0.0378256 -0.0112177 -0.0309301 0.00568611 0.106391 0.0169384 0.163831 0.244121 0.264894 0.262919 0.308014 0.222638 0.151569 0.248409 0.230872 0.219951 0.121923 0.0997651 0.0704929 -0.0351011 -0.0438453 -0.0234481 -0.0209079 0.0410744 -0.0453257 0.00617439 -0.0106256 -0.0157256 -0.0143256 -0.0427297 -0.0171731 0.0249203 0.07245 0.067791 0.0417338 0.0706855 0.0776946 0.111303 0.10131 0.145044 0.129722 0.132504 0.0852519 0.0157418 0.106521 0.0265461 0.00743046 0.0456754 0.00570806 -0.0417515 0.0107721 0.0458744 0.00687439 -0.00832561 0.00347439 